svm_type c_svc
kernel_type rbf
gamma 0.07692307692307693
nr_class 6
total_sv 1771
rho 0.2672229574774149 0.7201326242549464 0.6430213395807014 -0.1990934472982303 -0.13708393785726813 0.7332734196038279 0.598248494900303 -0.6552859585446615 -0.22946859935335678 -0.6232020732012223 -0.7367614538787168 -0.8108583633008283 -0.6770461213822483 -0.787007436064862 -0.28790377685952434
label 2 1 4 6 3 5
nr_sv 177 247 351 346 423 227
SV
1.0 0.0 0.0 1.0 0.0 1:0.128205 2:0.121704 3:0.13281 4:0.124036 5:2.27179 6:2.42874 7:5.50849 8:0.472324 9:0.454108 10:0.338438 11:0.337772 12:0.197877 13:0.183721 
1.0 1.0 1.0 1.0 1.0 1:0.121458 2:0.128822 3:0.150274 4:0.128702 5:2.05927 6:2.19938 7:2.74352 8:0.517147 9:0.504412 10:0.330779 11:0.336471 12:0.212869 13:0.208606 
1.0 0.0 0.0 1.0 0.0 1:0.130938 2:0.126601 3:0.139031 4:0.136644 5:2.04942 6:2.0293 7:6.13935 8:0.436909 9:0.43125 10:0.319461 11:0.315286 12:0.182364 13:0.176353 
1.0 0.0 0.0 1.0 0.0 1:0.121549 2:0.121337 3:0.134639 4:0.130513 5:2.09017 6:2.05005 7:5.67094 8:0.431026 9:0.430831 10:0.325167 11:0.334047 12:0.17202 13:0.166352 
1.0 0.34123814820305765 1.0 1.0 1.0 1:0.125261 2:0.113663 3:0.123057 4:0.121862 5:2.61572 6:2.69499 7:5.41589 8:0.461486 9:0.45532 10:0.338316 11:0.343949 12:0.189392 13:0.175188 
1.0 1.0 0.0 1.0 1.0 1:0.133697 2:0.122804 3:0.14616 4:0.134739 5:2.53722 6:2.55559 7:4.65872 8:0.480182 9:0.490114 10:0.354669 11:0.356641 12:0.18303 13:0.181747 
1.0 1.0 1.0 1.0 1.0 1:0.108223 2:0.0892499 3:0.0990969 4:0.120428 5:2.82433 6:2.68516 7:4.50479 8:0.432747 9:0.430812 10:0.300113 11:0.296315 12:0.192997 13:0.192149 
1.0 1.0 1.0 1.0 1.0 1:0.10704 2:0.0865399 3:0.09509 4:0.11815 5:2.57975 6:2.652 7:4.33458 8:0.429573 9:0.42521 10:0.29622 11:0.291498 12:0.179078 13:0.186581 
1.0 1.0 0.0 1.0 0.0 1:0.110048 2:0.0895435 3:0.102023 4:0.114464 5:2.38472 6:2.39371 7:4.56822 8:0.449306 9:0.438604 10:0.285316 11:0.281377 12:0.210834 13:0.21454 
1.0 1.0 1.0 1.0 1.0 1:0.110673 2:0.082609 3:0.097989 4:0.114433 5:2.62483 6:2.80488 7:4.83907 8:0.434562 9:0.424637 10:0.296951 11:0.301804 12:0.185531 13:0.195448 
1.0 1.0 1.0 1.0 1.0 1:0.113272 2:0.0858091 3:0.109813 4:0.149622 5:3.49581 6:3.06803 7:4.43122 8:0.441035 9:0.449701 10:0.293368 11:0.317169 12:0.191713 13:0.208687 
1.0 1.0 1.0 1.0 1.0 1:0.100725 2:0.0934887 3:0.106077 4:0.124998 5:2.86994 6:2.70676 7:4.53564 8:0.440896 9:0.429662 10:0.30135 11:0.301027 12:0.192642 13:0.19486 
1.0 1.0 1.0 1.0 1.0 1:0.108159 2:0.11798 3:0.134276 4:0.136926 5:2.846 6:2.82942 7:3.55481 8:0.479715 9:0.466437 10:0.319125 11:0.324178 12:0.187517 13:0.191141 
1.0 1.0 1.0 1.0 1.0 1:0.0979668 2:0.104388 3:0.112579 4:0.126901 5:2.7673 6:2.65975 7:7.61422 8:0.444775 9:0.433226 10:0.320252 11:0.335718 12:0.17605 13:0.190317 
1.0 1.0 1.0 1.0 1.0 1:0.105473 2:0.112474 3:0.119718 4:0.12566 5:2.81307 6:2.72966 7:3.92914 8:0.468612 9:0.456157 10:0.317458 11:0.323591 12:0.181905 13:0.189242 
1.0 1.0 1.0 1.0 1.0 1:0.0996109 2:0.0980406 3:0.112929 4:0.115659 5:2.75853 6:2.89485 7:5.03802 8:0.463319 9:0.45381 10:0.332664 11:0.346824 12:0.175124 13:0.165557 
1.0 0.0 1.0 1.0 1.0 1:0.108408 2:0.111969 3:0.123825 4:0.136626 5:2.63378 6:2.4562 7:5.63779 8:0.448592 9:0.442661 10:0.313278 11:0.32131 12:0.17324 13:0.183561 
1.0 1.0 1.0 1.0 1.0 1:0.092753 2:0.098074 3:0.108851 4:0.121284 5:2.95271 6:2.82924 7:15.8636 8:0.447081 9:0.443331 10:0.326891 11:0.331589 12:0.173288 13:0.180234 
1.0 1.0 1.0 1.0 1.0 1:0.0920266 2:0.101484 3:0.111656 4:0.128034 5:2.79908 6:2.58483 7:8.20238 8:0.434256 9:0.428513 10:0.323225 11:0.333919 12:0.163634 13:0.181527 
1.0 1.0 1.0 1.0 1.0 1:0.0909993 2:0.103608 3:0.116274 4:0.116293 5:3.02682 6:2.87948 7:7.35272 8:0.4522 9:0.440385 10:0.321794 11:0.331914 12:0.176295 13:0.177823 
1.0 1.0 1.0 1.0 1.0 1:0.0947853 2:0.104257 3:0.1206 4:0.13928 5:3.17547 6:2.96301 7:8.76108 8:0.44158 9:0.432683 10:0.325948 11:0.343376 12:0.165189 13:0.171537 
1.0 0.0 1.0 1.0 1.0 1:0.0896174 2:0.104646 3:0.116019 4:0.122967 5:2.66166 6:2.51103 7:6.17503 8:0.451353 9:0.442731 10:0.323817 11:0.337104 12:0.170441 13:0.177532 
1.0 1.0 1.0 1.0 1.0 1:0.0900944 2:0.0908144 3:0.108725 4:0.119078 5:2.50235 6:2.51578 7:8.30419 8:0.444101 9:0.447812 10:0.327609 11:0.3437 12:0.170394 13:0.177621 
1.0 1.0 1.0 1.0 1.0 1:0.0874531 2:0.10007 3:0.120103 4:0.126353 5:2.87572 6:2.71218 7:10.3628 8:0.448629 9:0.446751 10:0.325645 11:0.346355 12:0.177143 13:0.18084 
1.0 1.0 1.0 1.0 1.0 1:0.087722 2:0.101198 3:0.124045 4:0.123372 5:2.95458 6:2.81024 7:4.8489 8:0.452618 9:0.452154 10:0.324744 11:0.33999 12:0.168732 13:0.176764 
1.0 1.0 1.0 1.0 1.0 1:0.0863105 2:0.0965915 3:0.115622 4:0.122083 5:2.95604 6:2.86401 7:13.5547 8:0.447452 9:0.447306 10:0.326249 11:0.335978 12:0.180321 13:0.192158 
1.0 1.0 1.0 1.0 1.0 1:0.087103 2:0.0884343 3:0.0948969 4:0.104603 5:2.92193 6:2.92786 7:9.56483 8:0.44877 9:0.436674 10:0.324257 11:0.331748 12:0.183587 13:0.178381 
1.0 1.0 1.0 1.0 1.0 1:0.0896539 2:0.0929006 3:0.100187 4:0.12442 5:3.27201 6:3.22831 7:8.66485 8:0.469866 9:0.452763 10:0.339985 11:0.335795 12:0.182313 13:0.177044 
1.0 0.0 1.0 1.0 1.0 1:0.104621 2:0.0904924 3:0.109312 4:0.141023 5:2.78584 6:2.60687 7:5.32674 8:0.455545 9:0.453953 10:0.333899 11:0.335106 12:0.17352 13:0.178803 
1.0 1.0 1.0 1.0 1.0 1:0.101112 2:0.118777 3:0.104813 4:0.10387 5:3.17587 6:3.0865 7:4.13553 8:0.479546 9:0.458545 10:0.34254 11:0.302689 12:0.195913 13:0.185011 
1.0 1.0 0.0 1.0 1.0 1:0.113458 2:0.109682 3:0.10194 4:0.10459 5:2.53701 6:2.4796 7:4.45406 8:0.452732 9:0.426488 10:0.317786 11:0.270319 12:0.192236 13:0.184819 
1.0 1.0 1.0 1.0 1.0 1:0.0999329 2:0.112342 3:0.108926 4:0.0976383 5:3.4484 6:3.23294 7:5.01019 8:0.450273 9:0.427885 10:0.325132 11:0.281713 12:0.197392 13:0.178106 
1.0 1.0 1.0 1.0 1.0 1:0.0966595 2:0.114307 3:0.0992187 4:0.10374 5:3.80979 6:3.1372 7:4.95688 8:0.442436 9:0.433127 10:0.325047 11:0.283442 12:0.192544 13:0.180223 
1.0 1.0 1.0 1.0 1.0 1:0.101518 2:0.113454 3:0.107936 4:0.0931424 5:3.48577 6:3.28332 7:4.6794 8:0.458892 9:0.439603 10:0.319998 11:0.2857 12:0.199073 13:0.185354 
1.0 1.0 1.0 1.0 1.0 1:0.104756 2:0.10033 3:0.0876804 4:0.0992112 5:3.89369 6:3.57053 7:5.2049 8:0.463841 9:0.448524 10:0.320421 11:0.281238 12:0.19833 13:0.188042 
1.0 1.0 1.0 1.0 1.0 1:0.1033 2:0.104956 3:0.101319 4:0.0916464 5:3.74116 6:3.59583 7:4.76737 8:0.451254 9:0.42994 10:0.320775 11:0.278116 12:0.193749 13:0.179188 
1.0 1.0 1.0 1.0 1.0 1:0.0959736 2:0.108509 3:0.0989406 4:0.102074 5:3.54886 6:3.24899 7:5.41089 8:0.444891 9:0.429027 10:0.326385 11:0.284857 12:0.192861 13:0.176773 
1.0 1.0 1.0 1.0 1.0 1:0.111567 2:0.101391 3:0.0964076 4:0.090765 5:2.89986 6:2.8823 7:4.17776 8:0.463274 9:0.444325 10:0.314017 11:0.271403 12:0.205972 13:0.195076 
0.5775994479157346 1.0 1.0 1.0 1.0 1:0.0952705 2:0.107615 3:0.10416 4:0.101551 5:4.30894 6:3.87678 7:5.12092 8:0.458737 9:0.442417 10:0.326882 11:0.292028 12:0.200379 13:0.184158 
1.0 1.0 1.0 1.0 1.0 1:0.126852 2:0.11528 3:0.114582 4:0.12935 5:2.95897 6:2.98293 7:19.8629 8:0.469902 9:0.478943 10:0.336857 11:0.34193 12:0.163629 13:0.181056 
1.0 1.0 1.0 1.0 1.0 1:0.109193 2:0.11731 3:0.120084 4:0.128409 5:3.074 6:3.03316 7:19.1535 8:0.461334 9:0.455157 10:0.335477 11:0.342377 12:0.176208 13:0.183546 
1.0 1.0 1.0 0.445665089478831 1.0 1:0.119633 2:0.120315 3:0.11783 4:0.125751 5:3.11485 6:3.22519 7:20.8168 8:0.467121 9:0.459893 10:0.33005 11:0.328271 12:0.167404 13:0.175446 
1.0 1.0 1.0 1.0 1.0 1:0.131319 2:0.134227 3:0.124752 4:0.141888 5:2.88219 6:2.78536 7:19.1621 8:0.467402 9:0.458634 10:0.326156 11:0.322724 12:0.176157 13:0.183828 
1.0 1.0 1.0 1.0 1.0 1:0.140367 2:0.14533 3:0.132464 4:0.147719 5:2.99036 6:3.04138 7:19.5696 8:0.467453 9:0.457474 10:0.341144 11:0.336264 12:0.157234 13:0.164744 
1.0 1.0 1.0 1.0 1.0 1:0.147923 2:0.14572 3:0.154213 4:0.152999 5:2.87736 6:2.9471 7:23.9158 8:0.463204 9:0.466728 10:0.310048 11:0.323064 12:0.178241 13:0.187777 
1.0 1.0 1.0 1.0 1.0 1:0.155004 2:0.130444 3:0.128446 4:0.149826 5:3.02823 6:3.02666 7:15.1802 8:0.448697 9:0.447838 10:0.312475 11:0.325498 12:0.168381 13:0.176731 
1.0 1.0 1.0 1.0 1.0 1:0.139092 2:0.136617 3:0.131415 4:0.135042 5:2.85836 6:2.96759 7:15.8672 8:0.428306 9:0.448156 10:0.317537 11:0.333676 12:0.141448 13:0.157562 
1.0 1.0 1.0 1.0 1.0 1:0.147981 2:0.129289 3:0.1386 4:0.146792 5:2.6575 6:2.88915 7:18.0311 8:0.469389 9:0.475509 10:0.323801 11:0.34115 12:0.164406 13:0.181761 
1.0 1.0 1.0 1.0 1.0 1:0.157817 2:0.149507 3:0.148406 4:0.169166 5:3.00933 6:2.99193 7:18.1242 8:0.452466 9:0.455352 10:0.329973 11:0.35 12:0.154352 13:0.17424 
1.0 1.0 1.0 1.0 1.0 1:0.143341 2:0.136276 3:0.142758 4:0.145018 5:2.79797 6:3.11044 7:16.5096 8:0.450883 9:0.451921 10:0.326833 11:0.344915 12:0.154345 13:0.162999 
1.0 1.0 1.0 1.0 1.0 1:0.15429 2:0.137098 3:0.132046 4:0.14259 5:2.99144 6:3.33924 7:24.0189 8:0.461245 9:0.460544 10:0.329258 11:0.336931 12:0.162038 13:0.168713 
1.0 1.0 1.0 1.0 1.0 1:0.142067 2:0.146538 3:0.145618 4:0.137597 5:2.75276 6:2.99102 7:19.0345 8:0.459729 9:0.467682 10:0.324837 11:0.333164 12:0.158525 13:0.168847 
1.0 1.0 1.0 1.0 1.0 1:0.15303 2:0.128173 3:0.135297 4:0.142052 5:3.09039 6:3.39345 7:14.3865 8:0.457375 9:0.463161 10:0.313688 11:0.336338 12:0.165586 13:0.175656 
1.0 1.0 1.0 1.0 0.26202821417784417 1:0.135077 2:0.143977 3:0.146161 4:0.133464 5:2.7284 6:3.01935 7:24.3253 8:0.446493 9:0.449826 10:0.322502 11:0.328012 12:0.152077 13:0.159688 
1.0 1.0 1.0 0.0012287007545613536 0.0 1:0.125866 2:0.135914 3:0.136317 4:0.132867 5:2.98766 6:3.22825 7:24.8121 8:0.447692 9:0.44872 10:0.330491 11:0.344218 12:0.150027 13:0.170009 
1.0 1.0 1.0 1.0 1.0 1:0.145769 2:0.145403 3:0.152451 4:0.150684 5:3.00736 6:3.26737 7:18.8205 8:0.445612 9:0.450415 10:0.320869 11:0.346825 12:0.151082 13:0.165992 
1.0 1.0 1.0 1.0 1.0 1:0.14514 2:0.135306 3:0.136936 4:0.144031 5:2.71436 6:3.00866 7:17.1382 8:0.446678 9:0.442504 10:0.321303 11:0.327101 12:0.156788 13:0.167351 
1.0 1.0 1.0 0.10193670207719736 1.0 1:0.138848 2:0.133124 3:0.141231 4:0.133532 5:2.82545 6:3.37744 7:38.2238 8:0.448207 9:0.454737 10:0.323437 11:0.344496 12:0.15327 13:0.162111 
1.0 1.0 1.0 0.8008567889235535 0.8629801149860208 1:0.140463 2:0.130604 3:0.138026 4:0.144938 5:2.71013 6:3.11817 7:86.1469 8:0.446543 9:0.448335 10:0.32639 11:0.348378 12:0.150948 13:0.157689 
1.0 1.0 1.0 0.0 0.0 1:0.13966 2:0.144922 3:0.154841 4:0.156878 5:2.77417 6:2.99985 7:26.9915 8:0.445113 9:0.443995 10:0.317968 11:0.332691 12:0.158658 13:0.169744 
1.0 1.0 1.0 0.70120615694247 0.6750005636455443 1:0.137394 2:0.134427 3:0.135062 4:0.134889 5:2.85241 6:3.10357 7:42.6994 8:0.440257 9:0.444017 10:0.324677 11:0.331421 12:0.154293 13:0.166728 
1.0 1.0 1.0 1.0 1.0 1:0.121147 2:0.136181 3:0.151477 4:0.133531 5:2.53406 6:2.90468 7:22.026 8:0.453797 9:0.454031 10:0.317169 11:0.342097 12:0.156038 13:0.156923 
1.0 1.0 1.0 0.8834438799840277 1.0 1:0.140032 2:0.136851 3:0.137845 4:0.139601 5:3.11093 6:3.41894 7:27.5097 8:0.446012 9:0.443356 10:0.318215 11:0.333201 12:0.155685 13:0.1675 
0.0061341719289109975 1.0 1.0 0.0 0.0 1:0.130213 2:0.136075 3:0.142941 4:0.159223 5:2.8795 6:2.98601 7:41.8112 8:0.436783 9:0.435093 10:0.319202 11:0.337826 12:0.151497 13:0.168013 
1.0 1.0 1.0 1.0 1.0 1:0.123842 2:0.129287 3:0.146696 4:0.117516 5:2.81555 6:2.89217 7:6.94121 8:0.429833 9:0.421187 10:0.29042 11:0.276887 12:0.194856 13:0.19559 
1.0 1.0 1.0 1.0 1.0 1:0.125549 2:0.13646 3:0.153429 4:0.133185 5:2.65737 6:2.62397 7:7.92258 8:0.411624 9:0.413433 10:0.287279 11:0.282866 12:0.190184 13:0.189647 
1.0 1.0 1.0 1.0 1.0 1:0.128697 2:0.140771 3:0.150464 4:0.12606 5:3.03414 6:3.12898 7:7.7109 8:0.418942 9:0.417145 10:0.304205 11:0.300702 12:0.174793 13:0.178771 
1.0 1.0 1.0 1.0 1.0 1:0.150342 2:0.15537 3:0.160645 4:0.12789 5:3.19228 6:3.34515 7:6.44711 8:0.438835 9:0.439701 10:0.285127 11:0.295964 12:0.20929 13:0.212898 
1.0 1.0 1.0 1.0 1.0 1:0.146701 2:0.154967 3:0.155865 4:0.126627 5:3.02493 6:3.3443 7:6.15656 8:0.441976 9:0.438915 10:0.297555 11:0.299656 12:0.194103 13:0.19553 
1.0 1.0 1.0 1.0 1.0 1:0.130419 2:0.139185 3:0.15582 4:0.12465 5:2.80792 6:2.87984 7:8.24967 8:0.413387 9:0.415281 10:0.282907 11:0.285183 12:0.200118 13:0.192623 
1.0 1.0 1.0 1.0 1.0 1:0.125799 2:0.141415 3:0.148021 4:0.12392 5:2.58742 6:2.67006 7:7.46382 8:0.390455 9:0.394557 10:0.296828 11:0.299363 12:0.164192 13:0.164098 
1.0 1.0 1.0 1.0 1.0 1:0.131792 2:0.13795 3:0.146054 4:0.119367 5:3.23447 6:3.49485 7:6.78896 8:0.414375 9:0.413324 10:0.302352 11:0.295254 12:0.176173 13:0.169142 
1.0 1.0 1.0 1.0 1.0 1:0.137186 2:0.148495 3:0.161084 4:0.12472 5:2.73623 6:3.01641 7:6.14268 8:0.403342 9:0.409376 10:0.299949 11:0.299057 12:0.169911 13:0.159631 
1.0 1.0 1.0 1.0 1.0 1:0.131838 2:0.138106 3:0.144422 4:0.127091 5:3.07569 6:3.14905 7:7.4975 8:0.399043 9:0.404079 10:0.294976 11:0.289827 12:0.172679 13:0.168647 
1.0 1.0 1.0 1.0 1.0 1:0.140895 2:0.145247 3:0.157674 4:0.134417 5:2.77673 6:2.87306 7:6.7552 8:0.39642 9:0.397207 10:0.279285 11:0.276165 12:0.181503 13:0.176786 
1.0 1.0 1.0 1.0 1.0 1:0.134303 2:0.153172 3:0.164519 4:0.141708 5:1.96833 6:1.98385 7:8.38862 8:0.447209 9:0.446732 10:0.350441 11:0.356804 12:0.173548 13:0.140801 
1.0 1.0 0.0 1.0 1.0 1:0.16458 2:0.158168 3:0.151126 4:0.153748 5:2.4219 6:2.49613 7:4.25252 8:0.486866 9:0.470359 10:0.360986 11:0.336916 12:0.186481 13:0.153438 
1.0 1.0 1.0 0.8009110652236224 0.8629801147663174 1:0.131768 2:0.160231 3:0.151839 4:0.128231 5:2.21116 6:2.28702 7:128.293 8:0.456582 9:0.444448 10:0.332538 11:0.327613 12:0.170926 13:0.140938 
1.0 1.0 0.0 1.0 1.0 1:0.161352 2:0.163901 3:0.150113 4:0.13825 5:2.3418 6:2.29315 7:3.95119 8:0.499909 9:0.480768 10:0.35946 11:0.335808 12:0.196145 13:0.166794 
1.0 0.0 0.09233484933697018 1.0 0.0 1:0.163663 2:0.178962 3:0.174394 4:0.144409 5:2.18006 6:2.23448 7:6.3876 8:0.47941 9:0.45776 10:0.350839 11:0.327075 12:0.211379 13:0.165747 
1.0 1.0 1.0 1.0 1.0 1:0.151177 2:0.162695 3:0.156987 4:0.136047 5:2.29163 6:2.41185 7:8.7623 8:0.477469 9:0.444436 10:0.351061 11:0.321345 12:0.20014 13:0.143518 
1.0 1.0 1.0 0.7696895076278759 1.0 1:0.155724 2:0.173071 3:0.168726 4:0.143731 5:2.0269 6:2.09284 7:37.4082 8:0.505129 9:0.49736 10:0.366236 11:0.365655 12:0.192909 13:0.168369 
1.0 1.0 1.0 0.8012740201935856 0.8633921200514494 1:0.171291 2:0.17195 3:0.172228 4:0.150098 5:2.01851 6:1.91397 7:145.216 8:0.506885 9:0.509362 10:0.3791 11:0.365579 12:0.211831 13:0.172151 
1.0 0.0 0.0 1.0 0.0 1:0.154211 2:0.17182 3:0.180411 4:0.132362 5:2.10809 6:1.97112 7:4.56911 8:0.500066 9:0.487914 10:0.347139 11:0.330532 12:0.219414 13:0.17675 
1.0 1.0 0.4470062677835738 1.0 0.8206257728962751 1:0.163832 2:0.185032 3:0.186747 4:0.131036 5:1.72585 6:1.75519 7:3.70885 8:0.50974 9:0.493858 10:0.360775 11:0.355845 12:0.207972 13:0.181241 
1.0 0.0 0.0 1.0 0.0 1:0.162344 2:0.165574 3:0.16442 4:0.122314 5:1.98661 6:1.95462 7:4.40776 8:0.501264 9:0.48144 10:0.366582 11:0.349049 12:0.202272 13:0.164826 
1.0 1.0 0.0 1.0 0.0 1:0.146375 2:0.159157 3:0.152744 4:0.100747 5:1.96536 6:1.96458 7:3.79366 8:0.512973 9:0.492238 10:0.36569 11:0.341754 12:0.209197 13:0.177292 
1.0 0.0 0.0 1.0 0.0 1:0.156736 2:0.162865 3:0.153273 4:0.122618 5:2.02595 6:2.06879 7:4.47684 8:0.473624 9:0.449254 10:0.343895 11:0.325802 12:0.185576 13:0.143549 
1.0 1.0 0.0 1.0 0.0 1:0.126001 2:0.146883 3:0.140007 4:0.114103 5:2.3472 6:2.40925 7:4.34277 8:0.508216 9:0.475655 10:0.372696 11:0.352529 12:0.21035 13:0.15578 
1.0 1.0 0.7587873391314791 1.0 1.0 1:0.113874 2:0.108252 3:0.130601 4:0.138087 5:2.58908 6:2.62456 7:4.78421 8:0.432135 9:0.439266 10:0.317414 11:0.343699 12:0.154535 13:0.164392 
1.0 1.0 1.0 1.0 1.0 1:0.119247 2:0.106781 3:0.111843 4:0.127164 5:3.66061 6:3.02804 7:4.38268 8:0.460305 9:0.488341 10:0.335106 11:0.348307 12:0.169734 13:0.186569 
1.0 1.0 1.0 1.0 1.0 1:0.101746 2:0.101243 3:0.109939 4:0.124154 5:3.12095 6:2.93366 7:3.9837 8:0.462764 9:0.466019 10:0.339539 11:0.349552 12:0.159517 13:0.166514 
1.0 1.0 1.0 1.0 1.0 1:0.123867 2:0.102589 3:0.111648 4:0.11659 5:3.14545 6:2.95449 7:4.93823 8:0.468214 9:0.486418 10:0.327543 11:0.343015 12:0.184582 13:0.2004 
1.0 1.0 1.0 1.0 1.0 1:0.101344 2:0.113742 3:0.134105 4:0.123999 5:2.67984 6:2.6784 7:4.18635 8:0.470974 9:0.470475 10:0.34014 11:0.349264 12:0.168241 13:0.167189 
1.0 1.0 1.0 1.0 1.0 1:0.0979021 2:0.101475 3:0.133997 4:0.123665 5:3.17366 6:3.08634 7:4.8042 8:0.468446 9:0.47275 10:0.342571 11:0.356199 12:0.175044 13:0.166682 
1.0 1.0 1.0 1.0 1.0 1:0.0989443 2:0.101468 3:0.114363 4:0.121627 5:2.96974 6:2.78627 7:5.03297 8:0.434004 9:0.44148 10:0.325829 11:0.337932 12:0.158081 13:0.161272 
1.0 1.0 1.0 1.0 1.0 1:0.106952 2:0.0926941 3:0.124209 4:0.122197 5:3.13622 6:3.11861 7:4.842 8:0.456661 9:0.461459 10:0.33276 11:0.343017 12:0.174469 13:0.166691 
1.0 1.0 1.0 1.0 1.0 1:0.0935594 2:0.0940039 3:0.118325 4:0.117875 5:3.30445 6:3.02059 7:5.18441 8:0.432012 9:0.439755 10:0.321725 11:0.336771 12:0.157539 13:0.159648 
1.0 1.0 1.0 1.0 1.0 1:0.102529 2:0.0990386 3:0.124464 4:0.11415 5:3.21546 6:3.29358 7:5.07105 8:0.450838 9:0.446539 10:0.331855 11:0.341447 12:0.172211 13:0.161481 
1.0 1.0 1.0 1.0 1.0 1:0.0973506 2:0.106918 3:0.130358 4:0.120685 5:2.78147 6:2.78454 7:4.4611 8:0.452089 9:0.446124 10:0.335157 11:0.342876 12:0.164443 13:0.156955 
1.0 1.0 1.0 1.0 1.0 1:0.095331 2:0.0962706 3:0.127777 4:0.111408 5:3.28544 6:3.23076 7:5.219 8:0.45004 9:0.452533 10:0.327569 11:0.344686 12:0.172517 13:0.167246 
1.0 1.0 1.0 1.0 1.0 1:0.098942 2:0.100385 3:0.112614 4:0.124763 5:2.89703 6:2.62543 7:4.5771 8:0.43091 9:0.440132 10:0.32611 11:0.340018 12:0.14749 13:0.150611 
1.0 1.0 1.0 1.0 1.0 1:0.0901811 2:0.0972873 3:0.121908 4:0.108821 5:4.12677 6:4.10851 7:5.21656 8:0.444854 9:0.446076 10:0.33519 11:0.357965 12:0.15335 13:0.158352 
1.0 1.0 1.0 1.0 1.0 1:0.105918 2:0.107196 3:0.110082 4:0.1317 5:2.68291 6:2.44493 7:9.71706 8:0.437111 9:0.429692 10:0.318934 11:0.298221 12:0.176401 13:0.171638 
1.0 1.0 1.0 1.0 1.0 1:0.117433 2:0.097106 3:0.0988725 4:0.110611 5:2.38314 6:2.32271 7:7.29503 8:0.429522 9:0.420433 10:0.308742 11:0.289511 12:0.166665 13:0.170357 
1.0 1.0 1.0 1.0 1.0 1:0.116993 2:0.0965476 3:0.0922274 4:0.116308 5:2.73441 6:2.66945 7:5.17684 8:0.429942 9:0.42504 10:0.320049 11:0.320323 12:0.149324 13:0.169719 
1.0 1.0 1.0 1.0 1.0 1:0.108392 2:0.098184 3:0.100438 4:0.109319 5:2.92145 6:2.72435 7:6.70395 8:0.428839 9:0.422884 10:0.333555 11:0.323762 12:0.170197 13:0.157455 
1.0 0.0 0.0 1.0 0.0 1:0.124349 2:0.106036 3:0.112688 4:0.115546 5:2.08123 6:2.04822 7:6.26438 8:0.412103 9:0.404893 10:0.300886 11:0.282907 12:0.162548 13:0.163695 
1.0 0.0 0.0 1.0 0.0 1:0.114419 2:0.113008 3:0.117179 4:0.120203 5:2.14861 6:2.05838 7:5.69765 8:0.416883 9:0.408643 10:0.308796 11:0.291875 12:0.162647 13:0.157856 
1.0 0.0 0.0 1.0 0.0 1:0.131706 2:0.113458 3:0.112184 4:0.126771 5:2.31361 6:2.29408 7:4.95969 8:0.436834 9:0.419354 10:0.310566 11:0.295715 12:0.161177 13:0.163209 
1.0 0.0 0.0 1.0 0.0 1:0.134062 2:0.106874 3:0.108056 4:0.126899 5:2.28041 6:2.25285 7:5.21438 8:0.438768 9:0.427981 10:0.322567 11:0.308916 12:0.159277 13:0.166647 
1.0 1.0 1.0 1.0 1.0 1:0.116758 2:0.0960487 3:0.0899327 4:0.111019 5:2.91933 6:2.78686 7:5.4669 8:0.446867 9:0.43415 10:0.324125 11:0.299834 12:0.185957 13:0.17451 
1.0 1.0 1.0 1.0 1.0 1:0.106902 2:0.0992466 3:0.0920809 4:0.101829 5:2.9654 6:2.84973 7:5.80605 8:0.435294 9:0.424344 10:0.318689 11:0.296331 12:0.177734 13:0.164852 
1.0 1.0 1.0 1.0 1.0 1:0.108909 2:0.0977629 3:0.0881752 4:0.107168 5:2.86963 6:2.73096 7:6.89966 8:0.429652 9:0.412805 10:0.326023 11:0.2981 12:0.178261 13:0.159667 
1.0 1.0 1.0 1.0 1.0 1:0.130092 2:0.113901 3:0.117304 4:0.130111 5:2.70014 6:2.66237 7:7.48123 8:0.429614 9:0.414209 10:0.311091 11:0.299669 12:0.17928 13:0.177846 
1.0 1.0 1.0 1.0 1.0 1:0.128871 2:0.117391 3:0.123466 4:0.127125 5:2.81309 6:2.78878 7:8.01389 8:0.433836 9:0.424658 10:0.309038 11:0.304496 12:0.184597 13:0.186174 
1.0 1.0 1.0 1.0 1.0 1:0.129467 2:0.127137 3:0.132466 4:0.132622 5:2.72038 6:2.7169 7:6.30599 8:0.436591 9:0.422603 10:0.31072 11:0.298108 12:0.173171 13:0.175417 
1.0 1.0 1.0 1.0 1.0 1:0.127452 2:0.126456 3:0.132798 4:0.124738 5:2.68306 6:2.67622 7:6.46724 8:0.425475 9:0.412288 10:0.305563 11:0.302096 12:0.178216 13:0.178995 
1.0 1.0 1.0 1.0 1.0 1:0.132947 2:0.119799 3:0.122444 4:0.121581 5:2.73523 6:2.7584 7:7.10999 8:0.439735 9:0.429553 10:0.313299 11:0.305792 12:0.193474 13:0.186421 
1.0 1.0 1.0 1.0 1.0 1:0.138552 2:0.12876 3:0.130086 4:0.137605 5:2.41753 6:2.53386 7:6.7112 8:0.433395 9:0.417146 10:0.322241 11:0.303122 12:0.172817 13:0.175254 
1.0 1.0 1.0 1.0 1.0 1:0.139441 2:0.126325 3:0.12784 4:0.132583 5:2.65237 6:2.77548 7:6.7199 8:0.410315 9:0.399292 10:0.311478 11:0.309212 12:0.166882 13:0.161415 
1.0 0.0 1.0 1.0 1.0 1:0.153821 2:0.133192 3:0.137155 4:0.16919 5:2.6846 6:2.51093 7:5.55068 8:0.466015 9:0.459929 10:0.3066 11:0.307769 12:0.198864 13:0.203036 
1.0 1.0 1.0 1.0 1.0 1:0.161216 2:0.136083 3:0.143867 4:0.164209 5:2.90149 6:2.65935 7:5.47416 8:0.456186 9:0.459119 10:0.301632 11:0.303668 12:0.196964 13:0.200547 
1.0 1.0 1.0 1.0 1.0 1:0.158897 2:0.140461 3:0.142418 4:0.164746 5:3.36171 6:3.0402 7:4.63414 8:0.470256 9:0.468198 10:0.315485 11:0.308162 12:0.202354 13:0.207582 
1.0 1.0 0.0 1.0 1.0 1:0.156055 2:0.141597 3:0.142713 4:0.1443 5:2.55276 6:2.44633 7:4.63503 8:0.470761 9:0.464341 10:0.309976 11:0.304498 12:0.209567 13:0.209235 
1.0 1.0 1.0 1.0 1.0 1:0.164712 2:0.138127 3:0.13834 4:0.143146 5:2.58426 6:2.70018 7:5.42748 8:0.48108 9:0.476364 10:0.311967 11:0.318435 12:0.216508 13:0.209866 
1.0 1.0 1.0 1.0 1.0 1:0.144986 2:0.131539 3:0.142346 4:0.158244 5:2.91 6:2.58854 7:9.21246 8:0.462418 9:0.462161 10:0.30794 11:0.307487 12:0.200658 13:0.202408 
1.0 1.0 1.0 1.0 1.0 1:0.155758 2:0.132112 3:0.139603 4:0.168161 5:2.87332 6:2.53661 7:7.33626 8:0.467223 9:0.466794 10:0.307354 11:0.309025 12:0.212347 13:0.208852 
1.0 1.0 1.0 1.0 1.0 1:0.157513 2:0.13034 3:0.133881 4:0.170886 5:3.40908 6:2.81498 7:9.43425 8:0.46741 9:0.472657 10:0.311827 11:0.312787 12:0.204849 13:0.206007 
1.0 1.0 1.0 1.0 1.0 1:0.145845 2:0.137723 3:0.140067 4:0.134836 5:2.69757 6:2.66509 7:6.80861 8:0.48222 9:0.475716 10:0.320507 11:0.323964 12:0.207386 13:0.206451 
1.0 0.0 1.0 1.0 1.0 1:0.143456 2:0.131185 3:0.142329 4:0.168652 5:2.83716 6:2.54338 7:6.12905 8:0.477546 9:0.476992 10:0.309547 11:0.313303 12:0.21086 13:0.215451 
1.0 1.0 1.0 1.0 1.0 1:0.136697 2:0.136285 3:0.143595 4:0.120788 5:2.45455 6:2.57206 7:9.87107 8:0.484661 9:0.481222 10:0.317467 11:0.312641 12:0.219816 13:0.215349 
1.0 1.0 0.0 1.0 1.0 1:0.151877 2:0.133135 3:0.136145 4:0.150384 5:2.58728 6:2.50872 7:4.92845 8:0.464035 9:0.456332 10:0.306523 11:0.293065 12:0.205085 13:0.205263 
1.0 0.0 1.0 1.0 1.0 1:0.162312 2:0.126008 3:0.130917 4:0.159868 5:2.76548 6:2.68923 7:6.29584 8:0.479405 9:0.476934 10:0.311243 11:0.316475 12:0.211893 13:0.211721 
1.0 1.0 1.0 1.0 1.0 1:0.125178 2:0.118542 3:0.127799 4:0.121739 5:2.69967 6:2.59245 7:13.7456 8:0.491812 9:0.498339 10:0.327841 11:0.33291 12:0.200079 13:0.212794 
1.0 0.0 0.0 1.0 0.0 1:0.101636 2:0.118573 3:0.136682 4:0.124558 5:2.31339 6:2.18669 7:5.60732 8:0.436787 9:0.427732 10:0.30499 11:0.308777 12:0.180723 13:0.187619 
1.0 0.0 0.0 1.0 0.0 1:0.101497 2:0.121462 3:0.135117 4:0.131219 5:2.38827 6:2.24901 7:5.24205 8:0.437415 9:0.443517 10:0.327635 11:0.339267 12:0.170748 13:0.17993 
1.0 0.0 0.0 1.0 0.0 1:0.0988088 2:0.118652 3:0.134849 4:0.120005 5:2.33114 6:2.269 7:5.88439 8:0.436369 9:0.42808 10:0.314903 11:0.319635 12:0.180642 13:0.180809 
1.0 0.0 0.0 1.0 0.0 1:0.0989954 2:0.116593 3:0.138809 4:0.112047 5:2.24864 6:2.22035 7:5.34345 8:0.432439 9:0.418584 10:0.303002 11:0.303362 12:0.184453 13:0.18077 
1.0 0.0 0.0 1.0 0.0 1:0.112843 2:0.111871 3:0.118959 4:0.111649 5:2.34132 6:2.30447 7:4.90398 8:0.440449 9:0.433976 10:0.298999 11:0.303084 12:0.188323 13:0.198441 
1.0 1.0 1.0 1.0 1.0 1:0.0969345 2:0.112559 3:0.134867 4:0.113326 5:2.35248 6:2.32837 7:7.2227 8:0.421819 9:0.412737 10:0.321878 11:0.326246 12:0.173426 13:0.164172 
1.0 0.0 0.0 1.0 0.0 1:0.107821 2:0.116645 3:0.133781 4:0.123363 5:2.45726 6:2.43151 7:5.5335 8:0.427312 9:0.414078 10:0.298306 11:0.302338 12:0.177258 13:0.179454 
1.0 0.0 0.0 1.0 0.0 1:0.110054 2:0.114147 3:0.124774 4:0.113486 5:2.12116 6:2.17669 7:5.33779 8:0.466702 9:0.466549 10:0.3073 11:0.310713 12:0.203303 13:0.21695 
1.0 1.0 1.0 1.0 1.0 1:0.109988 2:0.120908 3:0.141898 4:0.133955 5:2.14153 6:2.05123 7:7.78645 8:0.416094 9:0.410412 10:0.313973 11:0.317404 12:0.168223 13:0.172466 
1.0 0.0 1.0 1.0 0.4584608942838005 1:0.104862 2:0.115006 3:0.132291 4:0.123059 5:2.40675 6:2.38814 7:6.29195 8:0.422532 9:0.402504 10:0.300666 11:0.297598 12:0.176623 13:0.177889 
1.0 1.0 1.0 1.0 1.0 1:0.12144 2:0.123279 3:0.137582 4:0.133469 5:2.94452 6:3.03586 7:4.97305 8:0.434847 9:0.418005 10:0.280181 11:0.275803 12:0.194884 13:0.197943 
1.0 1.0 0.0 1.0 1.0 1:0.163656 2:0.18573 3:0.200396 4:0.168348 5:2.05151 6:2.05109 7:3.70029 8:0.49436 9:0.494237 10:0.320889 11:0.316211 12:0.222881 13:0.216078 
1.0 0.8412157599809279 0.0 1.0 0.0 1:0.144077 2:0.160273 3:0.186474 4:0.157854 5:2.14379 6:2.06623 7:4.33193 8:0.468016 9:0.482727 10:0.299899 11:0.310027 12:0.212561 13:0.213835 
1.0 1.0 1.0 1.0 1.0 1:0.122247 2:0.117313 3:0.120562 4:0.12359 5:2.53476 6:2.82488 7:3.99027 8:0.474806 9:0.450034 10:0.33871 11:0.313286 12:0.190774 13:0.186009 
1.0 1.0 0.0 1.0 1.0 1:0.15961 2:0.177391 3:0.186388 4:0.156226 5:2.43842 6:2.5735 7:4.0668 8:0.492548 9:0.476006 10:0.321905 11:0.308392 12:0.227505 13:0.210591 
1.0 1.0 0.0 1.0 1.0 1:0.157009 2:0.176052 3:0.184734 4:0.164922 5:2.37931 6:2.38213 7:4.20608 8:0.480193 9:0.463394 10:0.316792 11:0.293346 12:0.221378 13:0.208654 
1.0 1.0 0.0 1.0 1.0 1:0.153097 2:0.179068 3:0.188725 4:0.164312 5:2.44013 6:2.48617 7:4.57694 8:0.497931 9:0.462211 10:0.321079 11:0.2849 12:0.234546 13:0.210256 
1.0 1.0 0.0 1.0 0.0 1:0.164393 2:0.170475 3:0.184368 4:0.161656 5:2.36091 6:2.4394 7:4.31001 8:0.495987 9:0.476005 10:0.329515 11:0.303075 12:0.224953 13:0.215213 
1.0 1.0 0.0 1.0 1.0 1:0.151188 2:0.169526 3:0.180249 4:0.147472 5:2.41492 6:2.53267 7:4.38441 8:0.492154 9:0.464311 10:0.322056 11:0.290345 12:0.227634 13:0.208606 
1.0 1.0 0.0 1.0 1.0 1:0.14889 2:0.168843 3:0.176653 4:0.152994 5:2.5373 6:2.52391 7:4.45924 8:0.489237 9:0.464463 10:0.315806 11:0.285581 12:0.230073 13:0.21274 
1.0 1.0 1.0 1.0 1.0 1:0.112821 2:0.125854 3:0.133709 4:0.122249 5:2.65562 6:2.48088 7:4.19819 8:0.509312 9:0.506363 10:0.384782 11:0.378537 12:0.188865 13:0.174995 
1.0 1.0 0.45641634697558014 1.0 1.0 1:0.109918 2:0.130302 3:0.140474 4:0.127112 5:2.3622 6:2.18167 7:3.95747 8:0.514003 9:0.506543 10:0.375894 11:0.372741 12:0.198591 13:0.186656 
1.0 1.0 1.0 1.0 1.0 1:0.126615 2:0.135285 3:0.142966 4:0.131727 5:2.58631 6:2.41216 7:4.07504 8:0.514413 9:0.4992 10:0.370977 11:0.350649 12:0.197118 13:0.191574 
1.0 1.0 0.0 1.0 0.0 1:0.117832 2:0.133945 3:0.159631 4:0.123604 5:2.06543 6:1.93988 7:3.85192 8:0.514711 9:0.497383 10:0.344131 11:0.336306 12:0.221229 13:0.209881 
1.0 1.0 0.0 1.0 1.0 1:0.118833 2:0.127284 3:0.137573 4:0.132217 5:2.5042 6:2.35129 7:4.21442 8:0.50876 9:0.492454 10:0.36992 11:0.349085 12:0.197918 13:0.182402 
1.0 1.0 1.0 1.0 1.0 1:0.125073 2:0.13785 3:0.141507 4:0.132842 5:2.52637 6:2.43446 7:4.00703 8:0.499408 9:0.493655 10:0.39733 11:0.387752 12:0.169285 13:0.154919 
1.0 1.0 0.0 1.0 1.0 1:0.125442 2:0.140389 3:0.159515 4:0.130312 5:2.1165 6:2.03712 7:3.82619 8:0.529075 9:0.516551 10:0.360697 11:0.342543 12:0.222411 13:0.208626 
1.0 1.0 0.0 1.0 0.0 1:0.113231 2:0.122066 3:0.135584 4:0.126531 5:2.29404 6:2.10881 7:4.10875 8:0.496977 9:0.493434 10:0.368621 11:0.366123 12:0.191292 13:0.179989 
1.0 1.0 0.0 1.0 1.0 1:0.112081 2:0.123017 3:0.141594 4:0.130917 5:2.50269 6:2.31601 7:4.48589 8:0.476322 9:0.471125 10:0.331475 11:0.329769 12:0.197475 13:0.200724 
1.0 0.0 0.0 1.0 0.0 1:0.116513 2:0.125892 3:0.141249 4:0.12926 5:2.14049 6:2.09357 7:5.04946 8:0.465618 9:0.450377 10:0.326689 11:0.316416 12:0.18375 13:0.19272 
1.0 0.0 0.0 1.0 0.0 1:0.110396 2:0.128755 3:0.148147 4:0.128737 5:2.15224 6:2.07895 7:4.97631 8:0.460472 9:0.460213 10:0.338048 11:0.33323 12:0.182736 13:0.181956 
1.0 1.0 0.0 1.0 0.11699961698587194 1:0.14354 2:0.143906 3:0.162767 4:0.149521 5:2.41345 6:2.36922 7:4.40466 8:0.485561 9:0.495181 10:0.330121 11:0.33955 12:0.205807 13:0.218296 
1.0 0.0 0.0 1.0 0.0 1:0.129554 2:0.137807 3:0.151632 4:0.147767 5:2.21502 6:2.05024 7:4.3794 8:0.470768 9:0.471044 10:0.322319 11:0.326561 12:0.18824 13:0.193 
1.0 0.0 0.0 1.0 0.0 1:0.130736 2:0.139416 3:0.151828 4:0.131139 5:2.00804 6:1.99062 7:4.39198 8:0.476376 9:0.470446 10:0.320598 11:0.334225 12:0.196931 13:0.193791 
1.0 1.0 0.0 1.0 0.0 1:0.147024 2:0.141577 3:0.155636 4:0.145168 5:2.02394 6:1.97484 7:3.96375 8:0.476255 9:0.474214 10:0.325756 11:0.329659 12:0.188212 13:0.190045 
1.0 0.0 0.0 1.0 0.0 1:0.154474 2:0.157188 3:0.168252 4:0.141268 5:1.88713 6:1.95485 7:4.62392 8:0.476271 9:0.473927 10:0.342731 11:0.343575 12:0.185409 13:0.173801 
1.0 0.0 0.0 1.0 0.0 1:0.136931 2:0.132242 3:0.154978 4:0.128995 5:1.90941 6:1.93264 7:4.62299 8:0.477051 9:0.468284 10:0.322916 11:0.33376 12:0.201093 13:0.194295 
1.0 0.0 0.0 1.0 0.0 1:0.139818 2:0.141195 3:0.1591 4:0.140202 5:1.88305 6:1.86183 7:4.35488 8:0.471592 9:0.467736 10:0.324765 11:0.337625 12:0.191585 13:0.189432 
1.0 1.0 1.0 1.0 1.0 1:0.137242 2:0.132855 3:0.155758 4:0.124295 5:1.99891 6:2.01291 7:3.29206 8:0.514584 9:0.512691 10:0.343682 11:0.346811 12:0.213499 13:0.220798 
1.0 0.0 0.0 1.0 0.0 1:0.133125 2:0.139503 3:0.16099 4:0.127672 5:1.79952 6:1.83408 7:4.62564 8:0.482734 9:0.482258 10:0.323749 11:0.330956 12:0.203999 13:0.20362 
1.0 0.0 0.0 1.0 0.0 1:0.139408 2:0.138585 3:0.160955 4:0.128969 5:1.77568 6:1.81942 7:4.61743 8:0.476622 9:0.473506 10:0.321248 11:0.328081 12:0.199008 13:0.198967 
1.0 0.0 0.0 1.0 0.0 1:0.136712 2:0.134661 3:0.153185 4:0.129973 5:1.93542 6:1.95419 7:4.70778 8:0.479379 9:0.471465 10:0.326739 11:0.339674 12:0.199362 13:0.193895 
-0.7280405502696446 1.0 1.0 0.34271616172502756 0.7653527464326416 1:0.13878 2:0.151994 3:0.163379 4:0.149164 5:3.21731 6:2.89968 7:64.0474 8:0.511644 9:0.526433 10:0.354977 11:0.38266 12:0.193297 13:0.198865 
-0.0 1.0 1.0 0.0 0.0 1:0.150118 2:0.160317 3:0.161255 4:0.152361 5:2.61009 6:2.50831 7:29.5349 8:0.498858 9:0.502215 10:0.347412 11:0.357908 12:0.197945 13:0.195161 
-0.39233008124892044 1.0 1.0 0.0 0.23812043895285903 1:0.143273 2:0.139025 3:0.140589 4:0.150563 5:2.31678 6:2.4072 7:28.1607 8:0.454372 9:0.461249 10:0.33314 11:0.357404 12:0.157774 13:0.16742 
-1.0 1.0 1.0 0.0 0.0 1:0.148235 2:0.14598 3:0.148171 4:0.150793 5:2.97565 6:2.96866 7:27.5677 8:0.486607 9:0.492472 10:0.336192 11:0.34922 12:0.198512 13:0.201783 
-0.7396738588115095 1.0 1.0 0.34445161555047393 0.7709810807514195 1:0.162699 2:0.153031 3:0.160768 4:0.154914 5:2.57732 6:2.59377 7:153.216 8:0.482559 9:0.491899 10:0.344978 11:0.374916 12:0.18579 13:0.177484 
-0.33489158316145046 1.0 1.0 0.1667530932628218 0.0 1:0.152569 2:0.153935 3:0.163621 4:0.160286 5:2.78487 6:2.82739 7:31.0297 8:0.493657 9:0.490125 10:0.337609 11:0.360596 12:0.200837 13:0.198241 
-1.0 1.0 1.0 0.4656339550056392 1.0 1:0.147806 2:0.152117 3:0.164436 4:0.151686 5:2.47588 6:2.40894 7:36.3658 8:0.503227 9:0.515171 10:0.337829 11:0.359429 12:0.21577 13:0.217717 
-0.0 1.0 1.0 1.0 0.5518990241425149 1:0.155905 2:0.156308 3:0.157845 4:0.158795 5:2.42124 6:2.47931 7:31.2095 8:0.466098 9:0.470746 10:0.330566 11:0.348433 12:0.175419 13:0.178742 
-1.0 1.0 1.0 0.0 1.0 1:0.117662 2:0.108942 3:0.107626 4:0.116437 5:3.40268 6:3.17078 7:22.1965 8:0.454891 9:0.460394 10:0.321538 11:0.320608 12:0.187243 13:0.184673 
-1.0 1.0 1.0 1.0 1.0 1:0.111393 2:0.119656 3:0.119145 4:0.11036 5:3.65701 6:3.24711 7:19.9618 8:0.474361 9:0.47378 10:0.336552 11:0.326162 12:0.19098 13:0.184349 
-1.0 1.0 1.0 1.0 1.0 1:0.116373 2:0.115776 3:0.116833 4:0.12265 5:3.03323 6:2.75147 7:4.66096 8:0.488381 9:0.479314 10:0.337034 11:0.3211 12:0.205663 13:0.195889 
-0.0 0.0 0.0 1.0 0.0 1:0.120469 2:0.118675 3:0.135717 4:0.128136 5:2.67691 6:2.49412 7:3.35706 8:0.490802 9:0.499969 10:0.349314 11:0.348201 12:0.187278 13:0.185833 
-1.0 0.0 0.0 1.0 0.0 1:0.120832 2:0.130704 3:0.139029 4:0.138765 5:2.40726 6:2.09174 7:3.72444 8:0.513355 9:0.516545 10:0.342322 11:0.338898 12:0.218273 13:0.212028 
-0.0 0.0 0.0 0.23571078966009143 0.0 1:0.141172 2:0.134077 3:0.141864 4:0.131437 5:2.77791 6:2.63626 7:2.98045 8:0.523831 9:0.529536 10:0.339624 11:0.33966 12:0.222294 13:0.224705 
-0.0 0.0 0.0 1.0 0.0 1:0.14224 2:0.128196 3:0.136512 4:0.127627 5:2.49804 6:2.34601 7:3.45809 8:0.510013 9:0.519374 10:0.33514 11:0.328979 12:0.220607 13:0.216223 
-0.0 0.0 0.0 1.0 0.0 1:0.12929 2:0.136522 3:0.152728 4:0.132431 5:2.54741 6:2.34261 7:3.44655 8:0.529375 9:0.544548 10:0.360659 11:0.357852 12:0.228377 13:0.222131 
-0.0 0.0 0.0 1.0 0.0 1:0.144219 2:0.129168 3:0.138133 4:0.139759 5:2.79193 6:2.66131 7:3.17917 8:0.51984 9:0.529508 10:0.338037 11:0.336362 12:0.223307 13:0.222114 
-1.0 1.0 1.0 1.0 1.0 1:0.144143 2:0.142687 3:0.15055 4:0.153148 5:3.09239 6:3.05363 7:18.844 8:0.424379 9:0.420448 10:0.29084 11:0.286464 12:0.175316 13:0.180829 
-1.0 1.0 1.0 1.0 1.0 1:0.154592 2:0.156925 3:0.158819 4:0.156348 5:2.75785 6:2.86248 7:14.1183 8:0.438556 9:0.440809 10:0.302046 11:0.302142 12:0.17462 13:0.178499 
-1.0 1.0 1.0 1.0 1.0 1:0.154318 2:0.146493 3:0.150064 4:0.160079 5:4.53772 6:4.36086 7:16.2372 8:0.455345 9:0.453436 10:0.313447 11:0.321753 12:0.191676 13:0.183848 
-1.0 1.0 1.0 1.0 1.0 1:0.148015 2:0.138939 3:0.148938 4:0.155894 5:3.38185 6:3.43297 7:9.54029 8:0.459796 9:0.46311 10:0.339603 11:0.340097 12:0.193043 13:0.190042 
-1.0 1.0 0.0 1.0 1.0 1:0.173259 2:0.15151 3:0.163179 4:0.163967 5:2.5616 6:2.77938 7:4.46081 8:0.463389 9:0.475966 10:0.364584 11:0.375201 12:0.159474 13:0.168047 
-1.0 1.0 0.0 1.0 1.0 1:0.165968 2:0.157805 3:0.164422 4:0.153883 5:2.62971 6:2.72051 7:3.9809 8:0.479438 9:0.495552 10:0.360802 11:0.363982 12:0.175697 13:0.172502 
-0.0 0.0 0.0 1.0 0.0 1:0.14448 2:0.148881 3:0.157803 4:0.14566 5:2.75909 6:2.80653 7:3.1712 8:0.500801 9:0.513227 10:0.351512 11:0.358827 12:0.19432 13:0.194642 
-0.0 0.0 0.0 1.0 0.0 1:0.141359 2:0.152307 3:0.161671 4:0.152947 5:2.72059 6:2.78972 7:3.47625 8:0.495539 9:0.506901 10:0.348447 11:0.354135 12:0.196217 13:0.198377 
-0.0 0.0 0.0 1.0 0.0 1:0.150871 2:0.145971 3:0.154141 4:0.149488 5:2.72385 6:2.77375 7:3.44744 8:0.491599 9:0.50975 10:0.352651 11:0.373283 12:0.190335 13:0.192473 
-0.0 0.0 0.0 1.0 0.0 1:0.188177 2:0.15944 3:0.161454 4:0.168114 5:2.2759 6:2.36283 7:3.98456 8:0.479215 9:0.498674 10:0.361083 11:0.380258 12:0.17096 13:0.178578 
-1.0 0.0 0.0 1.0 0.0 1:0.17959 2:0.163928 3:0.175832 4:0.168243 5:2.1711 6:2.2678 7:4.65036 8:0.486963 9:0.496405 10:0.355373 11:0.368439 12:0.200171 13:0.196851 
-0.0 0.0 0.0 1.0 0.0 1:0.160047 2:0.154432 3:0.166612 4:0.156515 5:2.46601 6:2.60787 7:3.46793 8:0.515796 9:0.536315 10:0.368554 11:0.39825 12:0.20076 13:0.204819 
-0.0 0.0 0.0 1.0 0.0 1:0.162822 2:0.150312 3:0.167752 4:0.155713 5:2.49437 6:2.6732 7:3.61952 8:0.494965 9:0.518676 10:0.36632 11:0.393292 12:0.188749 13:0.19357 
-1.0 1.0 1.0 1.0 1.0 1:0.147392 2:0.148546 3:0.155417 4:0.14917 5:2.6973 6:2.81703 7:16.8926 8:0.46361 9:0.486156 10:0.349776 11:0.38323 12:0.168647 13:0.184061 
-1.0 1.0 1.0 0.0 0.8973317244125584 1:0.147944 2:0.163042 3:0.162258 4:0.151103 5:2.83563 6:2.81948 7:27.0898 8:0.466343 9:0.483259 10:0.339751 11:0.357269 12:0.171389 13:0.177686 
-0.0 1.0 1.0 1.0 1.0 1:0.150047 2:0.152436 3:0.159877 4:0.153313 5:2.29826 6:2.34615 7:10.2752 8:0.462277 9:0.486346 10:0.343722 11:0.360252 12:0.169841 13:0.176012 
-1.0 1.0 1.0 1.0 1.0 1:0.138274 2:0.122995 3:0.130744 4:0.140851 5:3.05612 6:2.86889 7:6.4701 8:0.497252 9:0.494132 10:0.326535 11:0.330222 12:0.214894 13:0.206961 
-1.0 1.0 1.0 1.0 1.0 1:0.129433 2:0.116559 3:0.123907 4:0.132005 5:2.6772 6:2.57056 7:4.65503 8:0.508387 9:0.504768 10:0.341574 11:0.346348 12:0.213294 13:0.201591 
-1.0 1.0 1.0 1.0 1.0 1:0.13168 2:0.118833 3:0.128026 4:0.122566 5:2.67323 6:2.65598 7:5.83012 8:0.491171 9:0.487448 10:0.323215 11:0.329785 12:0.212266 13:0.199054 
-0.0 0.0 0.0 1.0 0.0 1:0.149456 2:0.125738 3:0.128032 4:0.124008 5:2.10853 6:2.2649 7:4.01424 8:0.50701 9:0.503102 10:0.332613 11:0.344706 12:0.210197 13:0.20523 
-1.0 0.0 0.0 1.0 0.0 1:0.149395 2:0.133247 3:0.14999 4:0.134376 5:2.35064 6:2.42214 7:4.56613 8:0.512199 9:0.506816 10:0.340982 11:0.342069 12:0.213815 13:0.208682 
-0.25278825736013616 0.0 0.0 1.0 0.0 1:0.151767 2:0.143883 3:0.154976 4:0.122843 5:2.16442 6:2.34347 7:4.8511 8:0.525571 9:0.513663 10:0.33957 11:0.349037 12:0.220833 13:0.216341 
-1.0 1.0 0.0 1.0 0.0 1:0.147311 2:0.137523 3:0.149539 4:0.134205 5:2.44245 6:2.55692 7:4.54419 8:0.495105 9:0.486454 10:0.332306 11:0.335722 12:0.214097 13:0.201143 
-1.0 1.0 1.0 1.0 1.0 1:0.143246 2:0.132673 3:0.149202 4:0.128816 5:2.96603 6:2.97134 7:5.96436 8:0.50523 9:0.499301 10:0.337697 11:0.340305 12:0.22347 13:0.203244 
-1.0 0.0 0.0 1.0 0.0 1:0.157582 2:0.141905 3:0.144836 4:0.129874 5:2.2906 6:2.447 7:4.75641 8:0.496952 9:0.489852 10:0.319333 11:0.329927 12:0.210361 13:0.201057 
-0.0 0.0 0.0 1.0 0.0 1:0.15768 2:0.146921 3:0.151739 4:0.131159 5:2.20017 6:2.43654 7:3.91341 8:0.503929 9:0.500277 10:0.326814 11:0.330606 12:0.212882 13:0.205512 
-0.17602490164080656 0.0 0.0 1.0 0.0 1:0.138069 2:0.149244 3:0.166407 4:0.148076 5:2.28487 6:2.14923 7:3.94668 8:0.502324 9:0.506969 10:0.316357 11:0.327726 12:0.222426 13:0.226495 
-0.0 0.0 0.0 1.0 0.0 1:0.15128 2:0.141977 3:0.149758 4:0.136298 5:2.58484 6:2.69805 7:3.25966 8:0.501378 9:0.495984 10:0.324132 11:0.332702 12:0.213653 13:0.213427 
-1.0 1.0 1.0 1.0 1.0 1:0.162459 2:0.133055 3:0.125045 4:0.155415 5:3.48457 6:3.36593 7:4.3681 8:0.438038 9:0.460623 10:0.335175 11:0.346313 12:0.152974 13:0.169994 
-1.0 1.0 0.0 1.0 1.0 1:0.186267 2:0.150747 3:0.147202 4:0.158929 5:2.58134 6:2.64447 7:4.91657 8:0.464716 9:0.470055 10:0.350492 11:0.340044 12:0.166257 13:0.170296 
-1.0 0.0 0.0 1.0 0.0 1:0.16647 2:0.139455 3:0.142936 4:0.149642 5:2.69522 6:2.5134 7:3.70587 8:0.481197 9:0.500219 10:0.332689 11:0.340988 12:0.181837 13:0.189466 
-0.0 0.0 0.0 1.0 0.0 1:0.17547 2:0.158468 3:0.163422 4:0.153654 5:2.50468 6:2.40527 7:3.66414 8:0.499927 9:0.512072 10:0.341454 11:0.347597 12:0.193175 13:0.200818 
-1.0 1.0 1.0 1.0 1.0 1:0.144834 2:0.145552 3:0.157224 4:0.137177 5:2.81847 6:2.69255 7:4.33605 8:0.507554 9:0.512605 10:0.348135 11:0.35727 12:0.209842 13:0.209008 
-0.0 0.0 0.0 1.0 0.0 1:0.16874 2:0.152299 3:0.158231 4:0.146963 5:2.43399 6:2.50495 7:3.64865 8:0.501676 9:0.517002 10:0.335983 11:0.337388 12:0.207789 13:0.215674 
-0.0 1.0 1.0 1.0 1.0 1:0.174216 2:0.159288 3:0.168197 4:0.157033 5:2.797 6:2.91554 7:3.71674 8:0.525412 9:0.524769 10:0.333316 11:0.326086 12:0.227904 13:0.227419 
-1.0 0.0 0.0 1.0 0.0 1:0.169642 2:0.168387 3:0.180371 4:0.163797 5:2.14688 6:2.18388 7:4.84381 8:0.490141 9:0.495281 10:0.344584 11:0.341378 12:0.201387 13:0.203203 
-1.0 1.0 1.0 1.0 1.0 1:0.105428 2:0.102338 3:0.114031 4:0.107644 5:2.95054 6:2.98666 7:17.5842 8:0.480292 9:0.487521 10:0.322581 11:0.325844 12:0.205481 13:0.21197 
-1.0 1.0 1.0 1.0 1.0 1:0.105696 2:0.1063 3:0.121276 4:0.114157 5:2.81341 6:2.82348 7:10.0029 8:0.476991 9:0.482373 10:0.331807 11:0.344067 12:0.207086 13:0.223298 
-1.0 0.0 0.0 1.0 0.0 1:0.0998132 2:0.112478 3:0.127777 4:0.113897 5:2.38159 6:2.42178 7:6.32909 8:0.473932 9:0.475577 10:0.324181 11:0.318696 12:0.21173 13:0.215247 
-1.0 0.0 0.0 1.0 0.0 1:0.113913 2:0.111164 3:0.120806 4:0.107014 5:2.28039 6:2.38773 7:4.45405 8:0.489248 9:0.479133 10:0.326741 11:0.326784 12:0.214614 13:0.215531 
-1.0 1.0 1.0 1.0 1.0 1:0.113434 2:0.102783 3:0.112499 4:0.104366 5:2.54962 6:2.75083 7:5.7981 8:0.483168 9:0.482586 10:0.333971 11:0.340329 12:0.208621 13:0.217321 
-1.0 1.0 1.0 1.0 1.0 1:0.143687 2:0.128633 3:0.13685 4:0.138377 5:2.69507 6:2.71292 7:5.34154 8:0.471915 9:0.470544 10:0.313915 11:0.312554 12:0.210832 13:0.22762 
-1.0 1.0 1.0 1.0 1.0 1:0.133055 2:0.116899 3:0.128709 4:0.134795 5:3.00779 6:3.0251 7:6.20138 8:0.495282 9:0.500424 10:0.332558 11:0.329292 12:0.224029 13:0.235007 
-1.0 1.0 1.0 1.0 1.0 1:0.12114 2:0.111335 3:0.118958 4:0.109137 5:3.29114 6:3.42874 7:6.44645 8:0.47458 9:0.480419 10:0.315708 11:0.326889 12:0.202784 13:0.216952 
-1.0 1.0 1.0 1.0 1.0 1:0.13939 2:0.133297 3:0.132702 4:0.141271 5:2.94689 6:2.93324 7:5.69562 8:0.473219 9:0.466178 10:0.321955 11:0.308281 12:0.203037 13:0.208285 
-1.0 1.0 1.0 1.0 1.0 1:0.126673 2:0.122638 3:0.129886 4:0.130414 5:3.05862 6:2.82359 7:5.91928 8:0.497399 9:0.506775 10:0.337551 11:0.334645 12:0.211551 13:0.224795 
-1.0 0.0 1.0 1.0 1.0 1:0.127875 2:0.11353 3:0.126137 4:0.122188 5:2.51212 6:2.48501 7:6.57197 8:0.502833 9:0.508385 10:0.335759 11:0.333551 12:0.219516 13:0.235327 
-1.0 0.2534391137022262 0.0 1.0 1.0 1:0.114645 2:0.107431 3:0.11716 4:0.0974185 5:2.43712 6:2.58727 7:5.51933 8:0.481889 9:0.490133 10:0.332456 11:0.340845 12:0.203982 13:0.207981 
-1.0 1.0 1.0 1.0 1.0 1:0.136469 2:0.12776 3:0.14099 4:0.12816 5:2.29449 6:2.36188 7:8.7473 8:0.472451 9:0.471685 10:0.316606 11:0.312622 12:0.218121 13:0.220018 
-1.0 1.0 1.0 1.0 1.0 1:0.127752 2:0.125626 3:0.134689 4:0.118594 5:2.40116 6:2.44827 7:7.56004 8:0.50109 9:0.493987 10:0.330126 11:0.322469 12:0.22321 13:0.230712 
-1.0 1.0 1.0 1.0 1.0 1:0.12831 2:0.105363 3:0.117408 4:0.12497 5:3.48071 6:3.34232 7:7.40675 8:0.507709 9:0.517869 10:0.31842 11:0.331777 12:0.233635 13:0.242147 
-1.0 1.0 1.0 0.0 1.0 1:0.124419 2:0.128707 3:0.136693 4:0.135512 5:2.78608 6:2.72866 7:36.8313 8:0.479845 9:0.487914 10:0.327005 11:0.338611 12:0.186719 13:0.195269 
-0.15644326453470625 1.0 1.0 1.0 1.0 1:0.119541 2:0.121766 3:0.130939 4:0.142596 5:3.26199 6:3.04949 7:13.1487 8:0.484457 9:0.480372 10:0.332997 11:0.338415 12:0.193289 13:0.198537 
-1.0 1.0 1.0 0.7112036942609221 0.0 1:0.122339 2:0.129763 3:0.136117 4:0.156873 5:2.95584 6:2.79967 7:25.052 8:0.489246 9:0.486204 10:0.345452 11:0.348929 12:0.184717 13:0.189544 
-1.0 1.0 1.0 0.4121546481277991 1.0 1:0.119885 2:0.118312 3:0.123136 4:0.136966 5:3.24266 6:3.11313 7:21.6531 8:0.492902 9:0.492285 10:0.331494 11:0.338697 12:0.195478 13:0.203189 
-1.0 1.0 1.0 1.0 1.0 1:0.127581 2:0.125458 3:0.138167 4:0.127086 5:2.79121 6:2.89762 7:20.7863 8:0.499854 9:0.507184 10:0.328746 11:0.345892 12:0.196804 13:0.201667 
-1.0 1.0 1.0 1.0 1.0 1:0.124653 2:0.126976 3:0.136151 4:0.160216 5:3.07479 6:2.84829 7:16.7156 8:0.498324 9:0.499439 10:0.337237 11:0.344419 12:0.197647 13:0.203956 
-1.0 1.0 1.0 1.0 1.0 1:0.120141 2:0.122188 3:0.133655 4:0.127132 5:2.6412 6:2.86365 7:7.30421 8:0.48757 9:0.480894 10:0.338465 11:0.348627 12:0.185063 13:0.182865 
-0.7423998420733792 1.0 1.0 1.0 1.0 1:0.131546 2:0.124713 3:0.137516 4:0.158978 5:3.6776 6:3.31158 7:11.9064 8:0.503951 9:0.510866 10:0.329866 11:0.342938 12:0.200006 13:0.211736 
-1.0 1.0 1.0 1.0 1.0 1:0.129005 2:0.123109 3:0.134336 4:0.14389 5:2.57297 6:2.54293 7:8.19826 8:0.498552 9:0.498885 10:0.33023 11:0.345866 12:0.197821 13:0.206037 
-1.0 1.0 1.0 1.0 1.0 1:0.130597 2:0.118094 3:0.130961 4:0.16613 5:3.04399 6:2.76468 7:5.04073 8:0.511854 9:0.517017 10:0.334219 11:0.347256 12:0.207592 13:0.218845 
-1.0 1.0 1.0 1.0 1.0 1:0.138362 2:0.120221 3:0.140319 4:0.165365 5:2.91712 6:2.65243 7:4.53624 8:0.501491 9:0.511299 10:0.359306 11:0.370708 12:0.18927 13:0.204853 
-0.0 0.0 0.0 1.0 0.0 1:0.149043 2:0.120543 3:0.139885 4:0.152305 5:2.5633 6:2.4145 7:3.675 8:0.515992 9:0.531117 10:0.32738 11:0.344037 12:0.216015 13:0.229852 
-1.0 1.0 1.0 1.0 1.0 1:0.144876 2:0.133333 3:0.130727 4:0.143746 5:2.72159 6:2.52178 7:8.97179 8:0.481185 9:0.479949 10:0.333144 11:0.329786 12:0.17385 13:0.187206 
-1.0 1.0 1.0 1.0 1.0 1:0.15425 2:0.122563 3:0.126134 4:0.146348 5:2.87807 6:2.79173 7:4.20888 8:0.491664 9:0.485679 10:0.349443 11:0.338668 12:0.182572 13:0.189645 
-1.0 1.0 1.0 1.0 1.0 1:0.161113 2:0.145361 3:0.138437 4:0.149132 5:3.27501 6:3.07284 7:6.4487 8:0.498795 9:0.516799 10:0.328476 11:0.342807 12:0.201911 13:0.212422 
-0.0 1.0 1.0 1.0 1.0 1:0.164802 2:0.15601 3:0.146823 4:0.151823 5:2.62604 6:2.53998 7:12.0219 8:0.4897 9:0.509282 10:0.323529 11:0.326981 12:0.199025 13:0.214527 
-1.0 1.0 1.0 1.0 1.0 1:0.155968 2:0.141973 3:0.13387 4:0.146906 5:3.64378 6:3.36031 7:9.53491 8:0.488747 9:0.507318 10:0.330149 11:0.345171 12:0.194335 13:0.202959 
-1.0 1.0 0.0 1.0 1.0 1:0.15364 2:0.142986 3:0.149798 4:0.157975 5:2.71317 6:2.63415 7:4.4854 8:0.522522 9:0.527973 10:0.357365 11:0.346602 12:0.223003 13:0.229353 
-1.0 1.0 1.0 1.0 1.0 1:0.152284 2:0.15777 3:0.157221 4:0.141788 5:2.65913 6:2.73829 7:18.6116 8:0.480524 9:0.48262 10:0.331175 11:0.329951 12:0.179355 13:0.183544 
-1.0 0.0 0.5739122194964398 1.0 1.0 1:0.155494 2:0.167561 3:0.18366 4:0.146312 5:2.4981 6:2.544 7:6.34124 8:0.476156 9:0.484039 10:0.31423 11:0.314064 12:0.199475 13:0.202857 
-0.0 0.0 0.0 1.0 0.0 1:0.156935 2:0.169454 3:0.177589 4:0.153509 5:2.66742 6:2.56246 7:3.43734 8:0.505957 9:0.506235 10:0.330009 11:0.327088 12:0.208323 13:0.208554 
-0.0 0.0 0.0 1.0 0.0 1:0.149087 2:0.158573 3:0.168272 4:0.151603 5:2.64842 6:2.4294 7:3.30502 8:0.5063 9:0.510643 10:0.33249 11:0.331102 12:0.218963 13:0.228066 
-0.0 0.0 0.0 1.0 0.0 1:0.149846 2:0.160349 3:0.167608 4:0.159021 5:2.82141 6:2.65539 7:3.12839 8:0.518566 9:0.520558 10:0.307866 11:0.313549 12:0.241735 13:0.247802 
-1.0 1.0 1.0 1.0 1.0 1:0.165966 2:0.169336 3:0.166163 4:0.154575 5:3.21913 6:2.8101 7:15.9109 8:0.509658 9:0.511156 10:0.341709 11:0.331798 12:0.218595 13:0.21676 
-0.0 0.0 0.0 1.0 0.0 1:0.141351 2:0.156467 3:0.17874 4:0.140045 5:2.2443 6:2.26631 7:7.30559 8:0.534584 9:0.538781 10:0.356967 11:0.354946 12:0.225755 13:0.223651 
-0.0 0.0 0.0 1.0 0.0 1:0.137347 2:0.145792 3:0.16065 4:0.127376 5:2.15995 6:2.32549 7:4.35094 8:0.529844 9:0.537223 10:0.370633 11:0.365297 12:0.217636 13:0.214194 
-0.0 0.0 0.0 1.0 0.0 1:0.144817 2:0.168021 3:0.18793 4:0.122683 5:2.24098 6:2.39268 7:4.2182 8:0.553681 9:0.550788 10:0.366051 11:0.362337 12:0.238186 13:0.225506 
-1.0 1.0 1.0 1.0 1.0 1:0.126242 2:0.126926 3:0.130737 4:0.121001 5:2.77966 6:2.57709 7:7.36128 8:0.500953 9:0.491124 10:0.350981 11:0.304499 12:0.216173 13:0.211492 
-1.0 1.0 1.0 1.0 1.0 1:0.128719 2:0.14337 3:0.143843 4:0.145019 5:2.66189 6:2.40202 7:7.55412 8:0.499115 9:0.486939 10:0.362892 11:0.309767 12:0.211284 13:0.201642 
-1.0 0.0 0.0 1.0 0.0 1:0.136248 2:0.1391 3:0.149448 4:0.133395 5:2.61339 6:2.55651 7:4.01105 8:0.524322 9:0.500237 10:0.361196 11:0.318257 12:0.221763 13:0.207751 
-1.0 1.0 1.0 1.0 1.0 1:0.142057 2:0.137652 3:0.148937 4:0.140101 5:2.76197 6:2.49376 7:5.38886 8:0.532852 9:0.512508 10:0.3588 11:0.319634 12:0.2377 13:0.218556 
-0.0 0.0 0.0 1.0 0.0 1:0.154283 2:0.139407 3:0.150926 4:0.148817 5:2.49204 6:2.42265 7:3.40784 8:0.532316 9:0.507211 10:0.347956 11:0.304252 12:0.242893 13:0.227886 
-0.0 0.0 0.0 1.0 0.0 1:0.139074 2:0.133897 3:0.134618 4:0.135354 5:2.72398 6:2.64697 7:3.76615 8:0.547734 9:0.532696 10:0.351635 11:0.311403 12:0.25265 13:0.246023 
-0.0 0.0 0.0 1.0 0.0 1:0.141328 2:0.124891 3:0.140666 4:0.132113 5:2.50893 6:2.356 7:3.51002 8:0.542869 9:0.534259 10:0.349601 11:0.322574 12:0.251454 13:0.242003 
-1.0 1.0 1.0 1.0 1.0 1:0.138628 2:0.132596 3:0.143816 4:0.1399 5:2.91572 6:2.6738 7:3.64568 8:0.540089 9:0.532824 10:0.359707 11:0.32171 12:0.248376 13:0.240098 
-0.0 0.0 0.0 1.0 0.0 1:0.125218 2:0.12648 3:0.129493 4:0.119342 5:2.78988 6:2.67848 7:3.34904 8:0.537631 9:0.522082 10:0.359492 11:0.316865 12:0.239724 13:0.23009 
-1.0 1.0 1.0 1.0 1.0 1:0.144229 2:0.129386 3:0.135833 4:0.147725 5:2.92879 6:2.58427 7:3.75269 8:0.5416 9:0.532321 10:0.352465 11:0.318059 12:0.245753 13:0.240307 
-1.0 1.0 1.0 1.0 1.0 1:0.147182 2:0.138056 3:0.145822 4:0.149144 5:3.40504 6:3.20836 7:16.3589 8:0.451697 9:0.461856 10:0.313369 11:0.314033 12:0.179296 13:0.182461 
-1.0 1.0 0.6638498523361925 1.0 1.0 1:0.140181 2:0.143981 3:0.162111 4:0.132032 5:2.58158 6:2.75378 7:4.84655 8:0.478647 9:0.486625 10:0.314939 11:0.3193 12:0.200556 13:0.210721 
-1.0 1.0 1.0 1.0 1.0 1:0.153664 2:0.152105 3:0.172057 4:0.149483 5:2.87403 6:2.65579 7:4.36888 8:0.531975 9:0.54147 10:0.325889 11:0.321823 12:0.25064 13:0.263483 
-1.0 0.0 1.0 1.0 0.0 1:0.158329 2:0.14908 3:0.163882 4:0.157945 5:2.38313 6:2.43728 7:7.04149 8:0.473432 9:0.476414 10:0.325187 11:0.313654 12:0.195326 13:0.195973 
-0.0 1.0 1.0 1.0 0.0 1:0.190837 2:0.165728 3:0.158508 4:0.149736 5:2.29897 6:2.49866 7:7.59372 8:0.536669 9:0.526973 10:0.341749 11:0.336834 12:0.235998 13:0.223187 
-1.0 1.0 1.0 1.0 1.0 1:0.107613 2:0.102853 3:0.110213 4:0.114435 5:2.89648 6:2.78762 7:5.53649 8:0.454778 9:0.459573 10:0.356482 11:0.359607 12:0.152061 13:0.164964 
-1.0 1.0 1.0 1.0 1.0 1:0.127506 2:0.101882 3:0.105938 4:0.120391 5:2.93244 6:2.96291 7:4.78596 8:0.468974 9:0.466491 10:0.333662 11:0.33817 12:0.171288 13:0.183467 
-1.0 1.0 0.0 1.0 1.0 1:0.131758 2:0.110323 3:0.119094 4:0.116682 5:2.5151 6:2.67882 7:4.0599 8:0.483202 9:0.47961 10:0.349333 11:0.346522 12:0.175657 13:0.183446 
-0.0 1.0 1.0 1.0 0.0 1:0.149779 2:0.138383 3:0.145491 4:0.128909 5:2.811 6:3.10256 7:3.15202 8:0.513955 9:0.517047 10:0.348443 11:0.354195 12:0.202297 13:0.206079 
-0.0 0.0 0.0 1.0 0.0 1:0.147707 2:0.133766 3:0.148317 4:0.146007 5:2.56745 6:2.6541 7:3.63109 8:0.518706 9:0.522978 10:0.361499 11:0.366071 12:0.192894 13:0.202867 
-0.0 0.0 0.0 1.0 0.0 1:0.152028 2:0.137627 3:0.143945 4:0.1269 5:2.85283 6:2.96035 7:3.1864 8:0.518239 9:0.526429 10:0.351279 11:0.34514 12:0.204091 13:0.213529 
-1.0 1.0 1.0 1.0 1.0 1:0.149438 2:0.145175 3:0.145059 4:0.132733 5:2.60737 6:2.73511 7:9.42283 8:0.471451 9:0.489717 10:0.335265 11:0.343985 12:0.160035 13:0.171968 
-1.0 1.0 1.0 1.0 1.0 1:0.13968 2:0.138011 3:0.151472 4:0.139536 5:3.35963 6:3.08408 7:3.22526 8:0.518419 9:0.526497 10:0.343107 11:0.330552 12:0.21424 13:0.23055 
-1.0 1.0 1.0 1.0 1.0 1:0.157959 2:0.146951 3:0.151173 4:0.131823 5:2.31639 6:2.78916 7:7.28325 8:0.507555 9:0.51365 10:0.347473 11:0.35769 12:0.180974 13:0.187214 
-0.0 1.0 1.0 1.0 1.0 1:0.152861 2:0.154288 3:0.162191 4:0.132641 5:2.08556 6:2.4482 7:8.9115 8:0.501257 9:0.508016 10:0.338464 11:0.347136 12:0.187021 13:0.190375 
-1.0 0.0 1.0 1.0 1.0 1:0.144302 2:0.148343 3:0.160564 4:0.143951 5:2.60671 6:2.52726 7:6.09568 8:0.481755 9:0.492483 10:0.333781 11:0.331936 12:0.180871 13:0.19491 
-0.0 0.7564207695824956 1.0 1.0 0.0 1:0.165582 2:0.150448 3:0.162168 4:0.15684 5:2.31689 6:2.31993 7:7.37186 8:0.513798 9:0.530547 10:0.335911 11:0.34334 12:0.204588 13:0.212681 
-1.0 1.0 1.0 1.0 1.0 1:0.154965 2:0.149724 3:0.147012 4:0.134307 5:2.93619 6:2.90094 7:7.29509 8:0.496789 9:0.517254 10:0.341478 11:0.342778 12:0.190199 13:0.207083 
-1.0 1.0 1.0 1.0 1.0 1:0.140406 2:0.145429 3:0.142477 4:0.12289 5:2.39392 6:2.6963 7:6.98794 8:0.506425 9:0.504168 10:0.34642 11:0.351039 12:0.179575 13:0.183497 
-1.0 1.0 1.0 1.0 1.0 1:0.159351 2:0.138046 3:0.143447 4:0.143764 5:2.81441 6:2.7186 7:4.45048 8:0.518886 9:0.535292 10:0.353428 11:0.3419 12:0.212927 13:0.226179 
-1.0 0.0 0.0 1.0 0.0 1:0.147603 2:0.142538 3:0.148982 4:0.134966 5:2.10484 6:2.06805 7:5.94853 8:0.467309 9:0.458563 10:0.32636 11:0.297417 12:0.187127 13:0.190358 
-0.6658634921355545 0.0 0.0 1.0 0.0 1:0.147971 2:0.143339 3:0.146169 4:0.151299 5:2.65949 6:2.43915 7:3.73457 8:0.504431 9:0.506632 10:0.336505 11:0.310595 12:0.206599 13:0.216554 
-0.0 0.0 0.0 1.0 0.0 1:0.14471 2:0.146414 3:0.166088 4:0.150646 5:2.68512 6:2.39307 7:3.48697 8:0.533981 9:0.535126 10:0.330984 11:0.310906 12:0.247339 13:0.25612 
-1.0 1.0 1.0 1.0 1.0 1:0.154118 2:0.162737 3:0.161628 4:0.144607 5:2.49596 6:2.40003 7:7.67142 8:0.466465 9:0.472946 10:0.323547 11:0.316928 12:0.206676 13:0.209466 
-0.0 0.0 0.0 1.0 0.0 1:0.167246 2:0.161577 3:0.170057 4:0.156508 5:2.75469 6:2.58101 7:3.57955 8:0.526101 9:0.531451 10:0.350476 11:0.343427 12:0.230303 13:0.226974 
-1.0 0.0 0.0 1.0 0.0 1:0.156405 2:0.163561 3:0.177534 4:0.150747 5:2.16697 6:2.14738 7:4.80487 8:0.477957 9:0.487121 10:0.326318 11:0.314809 12:0.206409 13:0.206446 
-1.0 1.0 1.0 1.0 1.0 1:0.155437 2:0.163495 3:0.156987 4:0.146851 5:2.64988 6:2.49418 7:20.841 8:0.478662 9:0.481155 10:0.327384 11:0.32371 12:0.201315 13:0.206353 
-1.0 0.0 0.0 1.0 0.0 1:0.165626 2:0.174198 3:0.170415 4:0.152958 5:2.054 6:1.98026 7:5.55535 8:0.460419 9:0.461537 10:0.31537 11:0.311447 12:0.198369 13:0.201736 
-1.0 1.0 1.0 1.0 1.0 1:0.141818 2:0.131222 3:0.128689 4:0.133375 5:2.38145 6:2.55953 7:7.3274 8:0.471909 9:0.494225 10:0.330318 11:0.355581 12:0.173049 13:0.176489 
-1.0 1.0 1.0 1.0 1.0 1:0.142885 2:0.146027 3:0.154018 4:0.147215 5:2.50732 6:2.67557 7:5.89272 8:0.441088 9:0.453608 10:0.315532 11:0.339396 12:0.154912 13:0.156463 
-1.0 1.0 0.0 1.0 1.0 1:0.154125 2:0.158853 3:0.174548 4:0.164047 5:2.4466 6:2.69162 7:5.35262 8:0.446721 9:0.45799 10:0.3138 11:0.332667 12:0.15643 13:0.165387 
-1.0 1.0 1.0 1.0 1.0 1:0.146522 2:0.131309 3:0.131487 4:0.153338 5:4.1804 6:3.77902 7:5.05947 8:0.458623 9:0.47618 10:0.330041 11:0.357929 12:0.171771 13:0.185769 
-1.0 1.0 1.0 1.0 1.0 1:0.135596 2:0.129013 3:0.135395 4:0.165506 5:2.9797 6:2.90197 7:3.69216 8:0.467991 9:0.479046 10:0.338208 11:0.353134 12:0.164312 13:0.171263 
-1.0 0.0 0.0 1.0 0.0 1:0.140305 2:0.139534 3:0.152931 4:0.154683 5:2.13761 6:2.19529 7:4.0876 8:0.453015 9:0.457455 10:0.33293 11:0.346118 12:0.151331 13:0.155467 
-1.0 1.0 0.0 1.0 0.0 1:0.139189 2:0.139207 3:0.14488 4:0.148415 5:2.5866 6:2.57352 7:3.78163 8:0.455047 9:0.468192 10:0.322306 11:0.341849 12:0.16758 13:0.175364 
-1.0 1.0 1.0 1.0 1.0 1:0.130486 2:0.134896 3:0.144576 4:0.148475 5:2.7337 6:2.74422 7:4.42688 8:0.460992 9:0.474578 10:0.327829 11:0.34993 12:0.166411 13:0.174722 
-1.0 0.0 0.0 1.0 0.0 1:0.145852 2:0.147863 3:0.159366 4:0.141213 5:2.11917 6:2.22125 7:4.48379 8:0.467257 9:0.464069 10:0.325613 11:0.330659 12:0.172642 13:0.175051 
-1.0 1.0 0.0 0.0 0.0 1:0.135752 2:0.136151 3:0.144463 4:0.141591 5:1.91838 6:1.946 7:4.00217 8:0.451257 9:0.463699 10:0.32175 11:0.342437 12:0.157227 13:0.168372 
-1.0 1.0 1.0 1.0 1.0 1:0.114084 2:0.101201 3:0.102762 4:0.12139 5:3.23704 6:2.84859 7:4.36818 8:0.517885 9:0.508885 10:0.356026 11:0.336767 12:0.216111 13:0.215129 
-0.0 1.0 1.0 1.0 1.0 1:0.114656 2:0.113671 3:0.12174 4:0.139532 5:3.08915 6:2.59868 7:3.30693 8:0.526421 9:0.522785 10:0.352776 11:0.343833 12:0.221152 13:0.222104 
-0.0 0.0 0.0 1.0 0.0 1:0.124592 2:0.114432 3:0.11462 4:0.137283 5:2.8912 6:2.5053 7:2.95206 8:0.546353 9:0.542237 10:0.358194 11:0.341222 12:0.231163 13:0.236909 
-0.0 0.0 0.0 1.0 0.0 1:0.134591 2:0.137251 3:0.137437 4:0.132369 5:2.63843 6:2.61866 7:3.53304 8:0.545669 9:0.529068 10:0.358006 11:0.331786 12:0.231855 13:0.230989 
-1.0 1.0 1.0 1.0 1.0 1:0.146014 2:0.145029 3:0.151508 4:0.128927 5:2.82974 6:2.79467 7:5.99359 8:0.514873 9:0.504754 10:0.349462 11:0.338858 12:0.211082 13:0.203886 
-0.0 0.0 0.0 1.0 0.0 1:0.148183 2:0.150905 3:0.161443 4:0.152215 5:2.47831 6:2.3401 7:3.64283 8:0.546375 9:0.53976 10:0.346499 11:0.3404 12:0.247458 13:0.238152 
-0.0 1.0 1.0 1.0 1.0 1:0.130644 2:0.151043 3:0.157362 4:0.139801 5:2.8354 6:2.8376 7:3.58846 8:0.536582 9:0.5203 10:0.361773 11:0.338459 12:0.222005 13:0.214694 
-1.0 1.0 1.0 1.0 1.0 1:0.131983 2:0.135535 3:0.146181 4:0.144188 5:2.73407 6:2.64919 7:4.52472 8:0.515189 9:0.505545 10:0.354743 11:0.331571 12:0.214226 13:0.20671 
-1.0 0.0 0.0 1.0 0.0 1:0.146541 2:0.147361 3:0.151897 4:0.148708 5:2.59035 6:2.5221 7:4.07174 8:0.522621 9:0.509346 10:0.358213 11:0.328992 12:0.218004 13:0.209304 
-1.0 0.0 1.0 1.0 1.0 1:0.14248 2:0.147774 3:0.15498 4:0.130914 5:2.52455 6:2.47019 7:6.35881 8:0.515826 9:0.504405 10:0.348092 11:0.328579 12:0.217844 13:0.209779 
-1.0 1.0 1.0 1.0 1.0 1:0.148142 2:0.142891 3:0.159191 4:0.150711 5:2.79164 6:2.57832 7:5.25545 8:0.508013 9:0.508615 10:0.35814 11:0.338034 12:0.221823 13:0.219379 
-1.0 0.0 0.0 1.0 0.0 1:0.143921 2:0.140587 3:0.141996 4:0.150739 5:2.19268 6:2.04422 7:5.59314 8:0.482587 9:0.477905 10:0.329419 11:0.302164 12:0.190959 13:0.195807 
-0.24866839762877588 0.3759023449363443 0.0 0.0 1.0 1:0.16572 2:0.140928 3:0.150145 4:0.157467 5:1.87355 6:1.84592 7:3.08365 8:0.501155 9:0.489872 10:0.32954 11:0.305663 12:0.20642 13:0.210349 
-1.0 0.0 0.0 1.0 0.0 1:0.155379 2:0.147482 3:0.15848 4:0.157918 5:2.26726 6:2.21992 7:3.99091 8:0.483759 9:0.483105 10:0.322534 11:0.300696 12:0.210602 13:0.215013 
-1.0 1.0 1.0 1.0 1.0 1:0.132612 2:0.141417 3:0.144699 4:0.145693 5:2.49326 6:2.1506 7:10.4281 8:0.443455 9:0.434557 10:0.31609 11:0.288394 12:0.182538 13:0.185976 
-1.0 0.0 0.0 1.0 0.0 1:0.144521 2:0.138844 3:0.14901 4:0.143088 5:2.4906 6:2.30141 7:5.79221 8:0.470474 9:0.462948 10:0.327846 11:0.295878 12:0.199058 13:0.199663 
-1.0 0.0 0.0 1.0 0.0 1:0.141478 2:0.15152 3:0.165032 4:0.141385 5:2.33581 6:2.22867 7:4.26842 8:0.481871 9:0.477179 10:0.327153 11:0.295769 12:0.208189 13:0.213767 
-1.0 0.0 0.0 1.0 0.0 1:0.142791 2:0.136947 3:0.14463 4:0.131882 5:2.18392 6:2.29102 7:4.89195 8:0.469003 9:0.463739 10:0.313903 11:0.311477 12:0.198377 13:0.200487 
-1.0 1.0 0.0 1.0 1.0 1:0.141767 2:0.133337 3:0.141764 4:0.125904 5:2.52249 6:2.63003 7:5.52398 8:0.473061 9:0.466065 10:0.318515 11:0.308794 12:0.206982 13:0.205811 
-1.0 1.0 0.0 1.0 0.6573526624363786 1:0.139068 2:0.144642 3:0.148747 4:0.129552 5:2.48685 6:2.52551 7:4.43911 8:0.466298 9:0.466772 10:0.304453 11:0.288984 12:0.211208 13:0.211256 
-1.0 1.0 1.0 1.0 1.0 1:0.138195 2:0.139441 3:0.134956 4:0.11844 5:2.81802 6:2.98901 7:4.04287 8:0.477623 9:0.469605 10:0.325868 11:0.302939 12:0.209849 13:0.204647 
-1.0 1.0 0.0 1.0 1.0 1:0.142408 2:0.139792 3:0.14343 4:0.130239 5:2.70443 6:2.72449 7:4.06299 8:0.480845 9:0.479356 10:0.308715 11:0.29144 12:0.218545 13:0.218118 
-1.0 1.0 1.0 1.0 1.0 1:0.146545 2:0.134536 3:0.131392 4:0.134484 5:3.17253 6:3.21123 7:3.619 8:0.485785 9:0.484283 10:0.321423 11:0.307191 12:0.215727 13:0.21638 
-0.0 0.0 0.0 1.0 0.0 1:0.135153 2:0.142955 3:0.150371 4:0.127038 5:2.65778 6:2.69965 7:3.58998 8:0.496226 9:0.497964 10:0.324521 11:0.312032 12:0.216069 13:0.224437 
-1.0 1.0 1.0 1.0 1.0 1:0.133415 2:0.136666 3:0.152768 4:0.13951 5:2.78465 6:2.59872 7:13.6698 8:0.452304 9:0.469145 10:0.288147 11:0.319394 12:0.194389 13:0.213807 
-1.0 1.0 1.0 1.0 1.0 1:0.151376 2:0.137797 3:0.155687 4:0.141965 5:2.67314 6:2.82444 7:5.87217 8:0.457756 9:0.479915 10:0.28624 11:0.333626 12:0.194158 13:0.204396 
-1.0 1.0 1.0 1.0 1.0 1:0.13616 2:0.139634 3:0.153422 4:0.144898 5:2.84972 6:2.6947 7:3.50835 8:0.452714 9:0.464262 10:0.285151 11:0.305467 12:0.198733 13:0.214993 
-0.0 0.0 0.0 1.0 0.0 1:0.147385 2:0.143975 3:0.160348 4:0.168435 5:2.75536 6:2.5638 7:3.30028 8:0.446296 9:0.460765 10:0.282802 11:0.301578 12:0.195649 13:0.215197 
-0.0 0.0 0.0 1.0 0.0 1:0.13833 2:0.145406 3:0.167624 4:0.154664 5:2.5952 6:2.58391 7:3.15769 8:0.455701 9:0.470549 10:0.28354 11:0.310262 12:0.20452 13:0.221638 
-0.0 1.0 0.5237331941102494 1.0 0.0 1:0.150051 2:0.151173 3:0.17396 4:0.1601 5:2.95722 6:2.75588 7:3.13323 8:0.470447 9:0.482084 10:0.284716 11:0.294397 12:0.214732 13:0.228514 
-1.0 1.0 1.0 1.0 1.0 1:0.141181 2:0.161847 3:0.154679 4:0.15557 5:3.68168 6:2.93065 7:7.18095 8:0.53462 9:0.522529 10:0.355604 11:0.333032 12:0.21268 13:0.209387 
-1.0 0.0 0.0 1.0 1.0 1:0.147633 2:0.167464 3:0.185357 4:0.157853 5:2.56395 6:2.44836 7:5.05369 8:0.523767 9:0.516237 10:0.333392 11:0.321658 12:0.229502 13:0.222331 
-1.0 1.0 0.0 1.0 0.6820066490911234 1:0.124309 2:0.151212 3:0.151958 4:0.132173 5:2.57595 6:2.74212 7:4.05325 8:0.502441 9:0.499791 10:0.322589 11:0.31716 12:0.209949 13:0.215424 
-1.0 0.0 0.0 0.0 0.0 1:0.124163 2:0.132781 3:0.147059 4:0.123972 5:1.845 6:1.89332 7:3.9542 8:0.516878 9:0.509274 10:0.329168 11:0.312837 12:0.220203 13:0.227551 
-1.0 1.0 1.0 1.0 1.0 1:0.150493 2:0.139442 3:0.13677 4:0.136148 5:2.97917 6:3.17569 7:8.61651 8:0.468569 9:0.475292 10:0.321265 11:0.316784 12:0.194288 13:0.197797 
-1.0 1.0 1.0 1.0 1.0 1:0.151933 2:0.14968 3:0.152166 4:0.145879 5:2.71824 6:2.62305 7:5.28552 8:0.454559 9:0.464383 10:0.305433 11:0.303981 12:0.196425 13:0.208434 
-1.0 1.0 1.0 1.0 1.0 1:0.160327 2:0.147359 3:0.158328 4:0.146527 5:2.89928 6:3.01273 7:4.10399 8:0.490739 9:0.493699 10:0.327267 11:0.326732 12:0.209556 13:0.214747 
-1.0 1.0 0.0 1.0 0.0 1:0.15151 2:0.15574 3:0.165736 4:0.129119 5:2.39687 6:2.71356 7:4.32501 8:0.504382 9:0.503968 10:0.315085 11:0.317435 12:0.232052 13:0.231361 
-0.0 0.0 0.0 1.0 0.0 1:0.164913 2:0.168587 3:0.185613 4:0.140553 5:2.47656 6:2.66299 7:3.67134 8:0.514202 9:0.514944 10:0.327157 11:0.329576 12:0.236282 13:0.233523 
-1.0 1.0 1.0 1.0 1.0 1:0.161083 2:0.173585 3:0.178675 4:0.13798 5:2.63598 6:2.76411 7:5.07367 8:0.498491 9:0.506346 10:0.322062 11:0.322516 12:0.225322 13:0.235588 
-1.0 1.0 1.0 1.0 1.0 1:0.16149 2:0.137969 3:0.143948 4:0.155258 5:3.30843 6:3.31144 7:6.94414 8:0.475805 9:0.480231 10:0.300517 11:0.302845 12:0.209929 13:0.221009 
-1.0 1.0 1.0 1.0 1.0 1:0.168531 2:0.159837 3:0.158804 4:0.141224 5:2.75035 6:2.99093 7:5.86522 8:0.505675 9:0.52232 10:0.332152 11:0.333961 12:0.219987 13:0.229671 
-0.0 0.0 0.0 1.0 0.0 1:0.1519 2:0.158343 3:0.170007 4:0.145112 5:2.68569 6:2.78273 7:3.52109 8:0.520382 9:0.529012 10:0.338946 11:0.348739 12:0.232627 13:0.237592 
-1.0 1.0 1.0 1.0 0.9216272150666918 1:0.127476 2:0.127965 3:0.135189 4:0.138805 5:3.19443 6:3.13388 7:24.2406 8:0.464175 9:0.47164 10:0.335601 11:0.351468 12:0.171459 13:0.179791 
-1.0 1.0 1.0 1.0 1.0 1:0.132214 2:0.139959 3:0.151937 4:0.134229 5:2.39143 6:2.38397 7:16.3768 8:0.471483 9:0.480086 10:0.347302 11:0.363937 12:0.171243 13:0.173783 
-0.0 1.0 1.0 1.0 1.0 1:0.150539 2:0.148893 3:0.160309 4:0.133296 5:2.14002 6:2.17113 7:9.78856 8:0.470002 9:0.470385 10:0.319051 11:0.333105 12:0.18607 13:0.185795 
-1.0 0.0 0.0 1.0 0.0 1:0.155758 2:0.161274 3:0.168845 4:0.143419 5:2.24556 6:2.34542 7:6.54291 8:0.487837 9:0.484963 10:0.335935 11:0.347465 12:0.184493 13:0.181634 
-1.0 0.0 0.0 1.0 0.0 1:0.164408 2:0.174153 3:0.182822 4:0.157787 5:2.10939 6:2.18194 7:4.6673 8:0.491551 9:0.493902 10:0.335893 11:0.342732 12:0.191112 13:0.186006 
-1.0 1.0 0.0 0.0 0.0 1:0.168479 2:0.184424 3:0.199139 4:0.151399 5:1.74358 6:1.81197 7:3.70054 8:0.500128 9:0.500481 10:0.355415 11:0.353846 12:0.184847 13:0.173032 
-1.0 1.0 1.0 1.0 1.0 1:0.132719 2:0.129567 3:0.13057 4:0.141258 5:2.25909 6:2.2001 7:21.2627 8:0.485414 9:0.480644 10:0.320805 11:0.319212 12:0.197667 13:0.207322 
-1.0 0.0 0.0 1.0 0.0 1:0.124605 2:0.12308 3:0.140275 4:0.127685 5:2.10366 6:2.13977 7:5.38828 8:0.484528 9:0.474468 10:0.318505 11:0.31782 12:0.194821 13:0.200308 
-1.0 0.3538693146348235 0.0 0.0 0.0 1:0.12542 2:0.13449 3:0.148179 4:0.129265 5:1.89952 6:1.93534 7:3.82266 8:0.485911 9:0.478241 10:0.329121 11:0.322273 12:0.190223 13:0.196534 
-1.0 0.0 0.0 1.0 0.0 1:0.162684 2:0.138492 3:0.159818 4:0.174751 5:2.38858 6:2.20226 7:4.22567 8:0.50893 9:0.521523 10:0.32799 11:0.342998 12:0.224196 13:0.242361 
-1.0 1.0 1.0 1.0 1.0 1:0.132864 2:0.147311 3:0.155995 4:0.135898 5:2.80736 6:2.7786 7:6.38662 8:0.427758 9:0.442273 10:0.295783 11:0.304317 12:0.180003 13:0.184341 
-1.0 0.0 0.0 1.0 0.0 1:0.125231 2:0.138222 3:0.145772 4:0.132221 5:2.39387 6:2.4528 7:5.39599 8:0.446916 9:0.445452 10:0.307778 11:0.305117 12:0.189554 13:0.18474 
-1.0 1.0 1.0 1.0 1.0 1:0.132745 2:0.141023 3:0.160343 4:0.130072 5:3.31519 6:3.30268 7:5.06966 8:0.446818 9:0.450732 10:0.318985 11:0.308423 12:0.190225 13:0.179611 
-0.0 0.0 0.0 1.0 0.0 1:0.135098 2:0.152968 3:0.160816 4:0.139593 5:2.42355 6:2.31363 7:3.72009 8:0.480882 9:0.491522 10:0.32091 11:0.316007 12:0.20682 13:0.213497 
-0.3239196445007134 1.0 1.0 0.15025415470019304 0.335229737518013 1:0.143273 2:0.163484 3:0.16955 4:0.124877 5:2.48219 6:2.68111 7:71.7672 8:0.444554 9:0.445139 10:0.302776 11:0.314526 12:0.187316 13:0.182513 
-0.4199225693436831 1.0 0.7808185459947365 0.19945845110733668 0.44669992228429944 1:0.130744 2:0.167612 3:0.165129 4:0.134047 5:2.52948 6:2.59084 7:72.512 8:0.432266 9:0.434228 10:0.294964 11:0.308373 12:0.178943 13:0.16974 
-0.0 1.0 1.0 0.0 0.0 1:0.130772 2:0.164729 3:0.166584 4:0.138751 5:2.3626 6:2.33348 7:28.3659 8:0.417398 9:0.432238 10:0.286914 11:0.296541 12:0.182388 13:0.182297 
-1.0 0.0 0.0 1.0 0.0 1:0.149438 2:0.160397 3:0.177004 4:0.163374 5:2.2233 6:2.2491 7:5.31646 8:0.454881 9:0.47409 10:0.305903 11:0.322152 12:0.191747 13:0.200006 
-1.0 1.0 0.0 1.0 0.0 1:0.140475 2:0.159592 3:0.173196 4:0.144954 5:2.43855 6:2.46267 7:5.07009 8:0.450485 9:0.460825 10:0.312761 11:0.317241 12:0.186501 13:0.189882 
-1.0 1.0 0.0 1.0 1.0 1:0.0953783 2:0.10747 3:0.117201 4:0.102635 5:2.5164 6:2.5423 7:4.15661 8:0.480806 9:0.462945 10:0.312485 11:0.300591 12:0.215744 13:0.207056 
-1.0 1.0 0.0 1.0 0.0 1:0.145518 2:0.146393 3:0.171323 4:0.14999 5:2.654 6:2.53104 7:3.77924 8:0.455821 9:0.473378 10:0.28295 11:0.311661 12:0.205433 13:0.204819 
-1.0 1.0 1.0 1.0 0.0 1:0.134219 2:0.145097 3:0.147686 4:0.134924 5:2.68479 6:2.71923 7:24.9334 8:0.44489 9:0.443062 10:0.306956 11:0.297111 12:0.174529 13:0.183854 
-1.0 1.0 1.0 1.0 1.0 1:0.150433 2:0.14481 3:0.146856 4:0.148555 5:2.55175 6:2.45391 7:10.6298 8:0.438315 9:0.438905 10:0.308821 11:0.299062 12:0.184288 13:0.184091 
-1.0 1.0 1.0 1.0 1.0 1:0.151343 2:0.145574 3:0.155903 4:0.15116 5:2.59974 6:2.54335 7:5.83209 8:0.455959 9:0.453838 10:0.318477 11:0.300952 12:0.186558 13:0.193302 
-1.0 1.0 1.0 1.0 1.0 1:0.156578 2:0.152399 3:0.1608 4:0.151998 5:2.80715 6:2.69938 7:3.92328 8:0.495218 9:0.491086 10:0.332982 11:0.300931 12:0.212377 13:0.215282 
-0.0 1.0 0.0 1.0 1.0 1:0.164852 2:0.153469 3:0.169008 4:0.154479 5:2.78955 6:2.66097 7:3.75727 8:0.525718 9:0.520457 10:0.328852 11:0.306019 12:0.238667 13:0.246473 
-1.0 1.0 1.0 1.0 0.061947287330438895 1:0.119664 2:0.120666 3:0.128942 4:0.128581 5:2.31355 6:2.26569 7:7.69819 8:0.445447 9:0.443422 10:0.325634 11:0.323606 12:0.162704 13:0.168572 
-1.0 1.0 1.0 1.0 1.0 1:0.114038 2:0.116784 3:0.120514 4:0.140644 5:2.49016 6:2.45347 7:6.90875 8:0.441271 9:0.433233 10:0.328848 11:0.312255 12:0.160982 13:0.165627 
-1.0 1.0 1.0 1.0 1.0 1:0.114916 2:0.111804 3:0.119033 4:0.137413 5:2.56443 6:2.54073 7:8.13023 8:0.444471 9:0.439965 10:0.333225 11:0.326075 12:0.164524 13:0.169419 
-0.0 0.0 0.0 1.0 0.0 1:0.103028 2:0.12563 3:0.127259 4:0.121758 5:2.5354 6:2.47908 7:3.40664 8:0.484968 9:0.478047 10:0.339611 11:0.324187 12:0.191709 13:0.190458 
-0.0 0.0 0.0 1.0 0.0 1:0.125464 2:0.125106 3:0.13141 4:0.127347 5:2.73619 6:2.5712 7:3.19061 8:0.515341 9:0.518126 10:0.328321 11:0.311138 12:0.227499 13:0.237679 
-1.0 1.0 1.0 1.0 1.0 1:0.127931 2:0.146095 3:0.155239 4:0.13968 5:2.94254 6:2.73132 7:6.27752 8:0.50993 9:0.501411 10:0.358241 11:0.346345 12:0.219516 13:0.211317 
-1.0 1.0 1.0 1.0 1.0 1:0.125183 2:0.142365 3:0.15749 4:0.132227 5:2.49846 6:2.41534 7:8.13298 8:0.517521 9:0.513137 10:0.368225 11:0.367035 12:0.195226 13:0.20007 
-0.0 0.0 0.0 1.0 0.0 1:0.12012 2:0.146091 3:0.154448 4:0.128883 5:2.08628 6:1.94067 7:7.21799 8:0.481731 9:0.479214 10:0.350134 11:0.342339 12:0.189593 13:0.188113 
-1.0 0.0 0.0 1.0 0.0 1:0.116132 2:0.142498 3:0.156283 4:0.129534 5:2.25527 6:2.10868 7:5.97318 8:0.49907 9:0.493295 10:0.344 11:0.341533 12:0.211676 13:0.20936 
-1.0 0.0 0.0 1.0 0.0 1:0.130296 2:0.147927 3:0.158698 4:0.13649 5:2.33345 6:2.24466 7:6.73632 8:0.504654 9:0.502735 10:0.347789 11:0.346527 12:0.199507 13:0.203687 
-1.0 0.0 0.0 1.0 0.0 1:0.123127 2:0.151527 3:0.164226 4:0.130088 5:2.38153 6:2.34226 7:5.33488 8:0.504169 9:0.499836 10:0.358093 11:0.352377 12:0.192265 13:0.193653 
-1.0 0.0 0.0 1.0 0.0 1:0.11534 2:0.139187 3:0.152545 4:0.127885 5:2.22456 6:2.14656 7:6.10751 8:0.489784 9:0.482169 10:0.356599 11:0.350918 12:0.195635 13:0.191655 
-1.0 0.0 1.0 1.0 1.0 1:0.116314 2:0.137934 3:0.149435 4:0.136814 5:2.61559 6:2.40082 7:5.79558 8:0.498361 9:0.500914 10:0.354481 11:0.358242 12:0.202876 13:0.203937 
-1.0 0.0 0.0 1.0 0.0 1:0.109363 2:0.125067 3:0.146264 4:0.118759 5:2.28062 6:2.25524 7:6.69509 8:0.492843 9:0.489853 10:0.346479 11:0.356426 12:0.205934 13:0.204668 
-1.0 0.0 0.0 0.0 0.0 1:0.126794 2:0.139518 3:0.161108 4:0.128795 5:1.88149 6:1.93265 7:3.88147 8:0.498159 9:0.48811 10:0.34764 11:0.33821 12:0.189479 13:0.197266 
-0.0 0.0 0.0 1.0 0.0 1:0.136144 2:0.147296 3:0.163407 4:0.134394 5:2.08702 6:2.07415 7:5.999 8:0.489021 9:0.485305 10:0.330873 11:0.329589 12:0.196999 13:0.203477 
-1.0 0.0 0.0 1.0 0.0 1:0.136541 2:0.139672 3:0.159375 4:0.135957 5:1.96369 6:1.95263 7:4.91227 8:0.49795 9:0.504258 10:0.342234 11:0.34777 12:0.202686 13:0.208362 
-1.0 1.0 0.0 0.0 0.0 1:0.153952 2:0.159894 3:0.173778 4:0.146893 5:1.8201 6:1.83918 7:3.95325 8:0.483479 9:0.487628 10:0.327147 11:0.336212 12:0.199553 13:0.199419 
-0.49943228532524553 1.0 0.0 0.0 1.0 1:0.139481 2:0.161566 3:0.17625 4:0.15464 5:1.82982 6:1.76281 7:2.83482 8:0.510668 9:0.513005 10:0.333512 11:0.335022 12:0.209901 13:0.215916 
-0.0 0.0 0.0 0.0 1.0 1:0.150232 2:0.170331 3:0.186414 4:0.153702 5:1.88508 6:1.836 7:2.97436 8:0.512981 9:0.518831 10:0.328808 11:0.321248 12:0.220484 13:0.230152 
-1.0 1.0 1.0 1.0 1.0 1:0.141939 2:0.143827 3:0.141611 4:0.132793 5:2.98766 6:3.25051 7:19.7118 8:0.495722 9:0.474153 10:0.365278 11:0.330866 12:0.182098 13:0.17221 
-1.0 1.0 1.0 1.0 1.0 1:0.150225 2:0.15112 3:0.157699 4:0.141645 5:2.99736 6:3.21369 7:15.5386 8:0.508614 9:0.496445 10:0.361779 11:0.348152 12:0.185513 13:0.178442 
-0.90333489181012 1.0 1.0 1.0 1.0 1:0.165542 2:0.156607 3:0.15816 4:0.14226 5:2.31965 6:2.49342 7:10.2577 8:0.500081 9:0.486051 10:0.351745 11:0.328981 12:0.189309 13:0.17818 
-1.0 1.0 1.0 1.0 1.0 1:0.151068 2:0.1499 3:0.154951 4:0.136158 5:2.53042 6:2.76784 7:7.61785 8:0.506744 9:0.483415 10:0.357983 11:0.333123 12:0.198765 13:0.183604 
-1.0 1.0 0.0 1.0 1.0 1:0.157893 2:0.148164 3:0.149288 4:0.135519 5:2.47951 6:2.53987 7:5.04291 8:0.4727 9:0.45971 10:0.340239 11:0.313344 12:0.1983 13:0.181323 
-1.0 0.0 0.0 1.0 0.0 1:0.155993 2:0.161051 3:0.169657 4:0.156845 5:2.44093 6:2.29055 7:4.03064 8:0.478734 9:0.46458 10:0.333379 11:0.303779 12:0.196717 13:0.195169 
-1.0 1.0 0.8675972394102462 1.0 1.0 1:0.147588 2:0.152677 3:0.164782 4:0.153241 5:2.72592 6:2.5444 7:4.48734 8:0.496463 9:0.482024 10:0.335861 11:0.299754 12:0.221111 13:0.213972 
-1.0 1.0 0.0 1.0 1.0 1:0.150108 2:0.155878 3:0.164647 4:0.16009 5:2.61923 6:2.404 7:4.29456 8:0.490446 9:0.47677 10:0.337539 11:0.302737 12:0.214208 13:0.206612 
-1.0 1.0 1.0 1.0 1.0 1:0.136243 2:0.11451 3:0.111118 4:0.138465 5:2.89903 6:2.49559 7:6.49829 8:0.482692 9:0.494267 10:0.346453 11:0.343719 12:0.182116 13:0.191711 
-1.0 0.0 0.0 1.0 0.0 1:0.137355 2:0.121553 3:0.121963 4:0.134863 5:2.30595 6:2.18734 7:5.30611 8:0.483747 9:0.483551 10:0.364821 11:0.354744 12:0.175224 13:0.182889 
-0.0 0.0 0.0 1.0 0.0 1:0.143178 2:0.113483 3:0.112783 4:0.129326 5:2.35432 6:2.24274 7:3.6661 8:0.491823 9:0.494191 10:0.353112 11:0.347749 12:0.183465 13:0.188584 
-0.0 0.9701201814743344 0.0 1.0 0.0 1:0.15584 2:0.116056 3:0.113002 4:0.139483 5:2.58497 6:2.6285 7:3.70545 8:0.493534 9:0.484928 10:0.363716 11:0.348666 12:0.175553 13:0.17787 
-0.0 1.0 1.0 1.0 1.0 1:0.155738 2:0.128324 3:0.120624 4:0.144401 5:2.90957 6:2.80592 7:3.31944 8:0.502695 9:0.499725 10:0.353947 11:0.346419 12:0.185549 13:0.182738 
-1.0 0.0 0.0 1.0 0.0 1:0.136194 2:0.117338 3:0.116181 4:0.119958 5:2.18496 6:2.13298 7:3.97175 8:0.489722 9:0.479755 10:0.360803 11:0.348251 12:0.182221 13:0.182081 
-0.0 0.0 0.0 1.0 0.0 1:0.160184 2:0.141534 3:0.139547 4:0.149941 5:2.70892 6:2.63031 7:3.04953 8:0.514066 9:0.510083 10:0.344544 11:0.335428 12:0.209958 13:0.207062 
-0.0 -0.0 1.0 0.0 0.0 1:0.116883 2:0.112458 3:0.117656 4:0.122337 5:3.00083 6:2.87824 7:18.2714 8:0.513509 9:0.501201 10:0.349286 11:0.355737 12:0.203266 13:0.210179 
-0.0 -0.0 1.0 0.0 1.0 1:0.106704 2:0.11497 3:0.112771 4:0.13552 5:3.17671 6:2.91116 7:14.4934 8:0.51048 9:0.509649 10:0.356868 11:0.364003 12:0.188989 13:0.20765 
-0.0 -0.4710800580838981 0.8945882556412047 0.0 0.0 1:0.119331 2:0.140474 3:0.146376 4:0.137137 5:2.8101 6:2.83294 7:28.5738 8:0.512545 9:0.494056 10:0.364676 11:0.361383 12:0.182672 13:0.192244 
-0.0 -0.0 0.0 0.24344015964789414 0.0 1:0.116345 2:0.117631 3:0.121057 4:0.118229 5:2.57112 6:2.5826 7:23.6985 8:0.483496 9:0.479837 10:0.358508 11:0.363861 12:0.158689 13:0.170143 
-0.0 -0.0 1.0 0.0 0.0 1:0.113828 2:0.118407 3:0.136919 4:0.130701 5:3.02081 6:2.8684 7:17.9947 8:0.498145 9:0.500652 10:0.364685 11:0.374711 12:0.176587 13:0.188598 
-0.0 -0.0 1.0 0.0 0.0 1:0.125277 2:0.107906 3:0.121457 4:0.124229 5:2.91424 6:2.92976 7:17.7163 8:0.498528 9:0.490192 10:0.361499 11:0.371654 12:0.171579 13:0.179 
-0.0921750078812689 -0.0 0.0 1.0 0.0 1:0.127467 2:0.116909 3:0.121713 4:0.121061 5:2.49936 6:2.59308 7:15.4879 8:0.485208 9:0.463684 10:0.362742 11:0.349833 12:0.167612 13:0.169615 
-0.0 -0.8045213399032151 1.0 0.031983267599506614 0.0 1:0.112149 2:0.121682 3:0.118822 4:0.117287 5:3.17354 6:2.98675 7:24.6401 8:0.459903 9:0.468808 10:0.345945 11:0.350339 12:0.18098 13:0.179056 
-0.0 -0.0 1.0 0.0 0.0 1:0.129769 2:0.12966 3:0.130827 4:0.138475 5:3.02559 6:2.77767 7:20.4879 8:0.456535 9:0.466137 10:0.324135 11:0.322546 12:0.178527 13:0.179939 
-1.0 -1.0 1.0 1.0 1.0 1:0.105949 2:0.129396 3:0.134216 4:0.129998 5:3.07872 6:2.89781 7:9.63994 8:0.443223 9:0.460803 10:0.335368 11:0.33869 12:0.184666 13:0.177203 
-0.0 -0.0 1.0 0.0 0.0 1:0.130522 2:0.143504 3:0.136522 4:0.145838 5:2.8255 6:2.45806 7:20.4191 8:0.43794 9:0.456953 10:0.325452 11:0.327697 12:0.163076 13:0.162594 
-1.0 -1.0 1.0 1.0 1.0 1:0.123011 2:0.137083 3:0.13817 4:0.125963 5:2.64067 6:2.35385 7:4.85943 8:0.457755 9:0.462657 10:0.305806 11:0.300219 12:0.202211 13:0.215425 
-0.0 -0.0 1.0 1.0 1.0 1:0.124553 2:0.124894 3:0.126672 4:0.132124 5:2.80313 6:2.64412 7:10.8241 8:0.455554 9:0.464475 10:0.345711 11:0.344559 12:0.178753 13:0.165887 
-1.0 -1.0 1.0 1.0 1.0 1:0.123304 2:0.128342 3:0.131922 4:0.144058 5:2.70106 6:2.4368 7:9.93875 8:0.437862 9:0.450981 10:0.335962 11:0.341082 12:0.167124 13:0.16151 
-1.0 -1.0 0.450203338003632 1.0 1.0 1:0.118862 2:0.135075 3:0.141595 4:0.135844 5:2.30178 6:2.19823 7:5.02666 8:0.434345 9:0.445411 10:0.337328 11:0.329255 12:0.155624 13:0.152658 
-1.0 -1.0 1.0 1.0 1.0 1:0.135007 2:0.126989 3:0.127625 4:0.139339 5:2.8065 6:2.62269 7:3.67745 8:0.462479 9:0.454452 10:0.331728 11:0.318723 12:0.188979 13:0.182047 
-1.0 -1.0 0.0 1.0 0.4920016813885249 1:0.136031 2:0.139664 3:0.136948 4:0.136204 5:2.37538 6:2.16872 7:3.70202 8:0.469475 9:0.471838 10:0.307592 11:0.297958 12:0.209417 13:0.21443 
-1.0 -1.0 0.0 1.0 0.0 1:0.120006 2:0.126642 3:0.131161 4:0.139998 5:2.34141 6:2.11681 7:3.65826 8:0.462378 9:0.465208 10:0.328691 11:0.322695 12:0.183317 13:0.183869 
-1.0 -1.0 0.0 1.0 1.0 1:0.136558 2:0.140082 3:0.144601 4:0.154162 5:2.68261 6:2.47148 7:3.45964 8:0.468158 9:0.459835 10:0.335245 11:0.312078 12:0.188336 13:0.178719 
-1.0 -1.0 1.0 1.0 1.0 1:0.111263 2:0.133993 3:0.133562 4:0.138416 5:2.45601 6:2.12415 7:5.83873 8:0.462862 9:0.475128 10:0.342718 11:0.336227 12:0.17884 13:0.175033 
-1.0 -1.0 0.0 1.0 1.0 1:0.118881 2:0.131469 3:0.140081 4:0.139462 5:2.51032 6:2.31752 7:3.76549 8:0.45498 9:0.451727 10:0.339439 11:0.332125 12:0.171443 13:0.161455 
-1.0 -1.0 0.0 1.0 1.0 1:0.109537 2:0.120617 3:0.132372 4:0.133479 5:2.55361 6:2.39653 7:4.31121 8:0.462552 9:0.468444 10:0.343996 11:0.349239 12:0.177719 13:0.16504 
-1.0 -1.0 1.0 1.0 1.0 1:0.11256 2:0.118152 3:0.123582 4:0.13641 5:2.51783 6:2.27249 7:4.6416 8:0.461302 9:0.46211 10:0.332687 11:0.333617 12:0.192935 13:0.173402 
-0.04241114792840196 -0.1291005469074458 0.45436274645955044 0.14243292245072736 0.08542618206928708 1:0.120891 2:0.115308 3:0.12091 4:0.119569 5:3.08921 6:3.0078 7:47.7679 8:0.455374 9:0.45364 10:0.34598 11:0.34301 12:0.178777 13:0.165631 
-0.0 -0.0 1.0 1.0 1.0 1:0.125205 2:0.135021 3:0.141966 4:0.127333 5:2.81365 6:2.67498 7:10.8538 8:0.454125 9:0.460528 10:0.321293 11:0.317889 12:0.204639 13:0.177557 
-1.0 -1.0 1.0 1.0 1.0 1:0.120092 2:0.130157 3:0.139306 4:0.125841 5:2.47028 6:2.40903 7:6.24783 8:0.433719 9:0.425796 10:0.306491 11:0.29655 12:0.199664 13:0.179334 
-1.0 -1.0 1.0 1.0 1.0 1:0.119733 2:0.125355 3:0.137215 4:0.111894 5:2.21939 6:2.18009 7:7.09833 8:0.44163 9:0.444678 10:0.33782 11:0.343607 12:0.183671 13:0.182064 
-1.0 -1.0 1.0 1.0 1.0 1:0.108165 2:0.125677 3:0.130272 4:0.110244 5:2.66405 6:2.58583 7:7.13988 8:0.441089 9:0.447323 10:0.33573 11:0.345079 12:0.183131 13:0.180531 
-1.0 -1.0 1.0 1.0 1.0 1:0.116829 2:0.147115 3:0.153152 4:0.141371 5:2.77402 6:2.4659 7:7.55126 8:0.447437 9:0.464149 10:0.325565 11:0.326429 12:0.182406 13:0.177181 
-1.0 -1.0 1.0 1.0 1.0 1:0.111557 2:0.132595 3:0.143458 4:0.121723 5:2.39409 6:2.20437 7:8.91699 8:0.432392 9:0.444249 10:0.325418 11:0.327309 12:0.200678 13:0.192712 
-0.0 -0.8368666552564693 1.0 0.0 1.0 1:0.121559 2:0.123807 3:0.112887 4:0.124906 5:3.2104 6:3.09126 7:17.2935 8:0.491054 9:0.50261 10:0.345684 11:0.35358 12:0.183288 13:0.201292 
-0.0 -0.0 1.0 0.0 0.0 1:0.104426 2:0.118746 3:0.124048 4:0.128403 5:3.33559 6:3.00353 7:19.7618 8:0.462969 9:0.480546 10:0.345515 11:0.364061 12:0.16831 13:0.188313 
-0.0 -0.0 1.0 0.0 0.0 1:0.102246 2:0.119573 3:0.129887 4:0.124501 5:3.65547 6:3.41338 7:27.1171 8:0.461646 9:0.470762 10:0.339233 11:0.354533 12:0.170071 13:0.18323 
-0.0 -0.0 1.0 0.0 0.0 1:0.108263 2:0.112405 3:0.122701 4:0.121462 5:3.92426 6:3.56217 7:23.254 8:0.454491 9:0.472624 10:0.334826 11:0.359646 12:0.174229 13:0.187549 
-0.0 -0.0 1.0 0.0 0.0 1:0.101255 2:0.113263 3:0.121309 4:0.12225 5:3.86568 6:3.46648 7:22.136 8:0.451394 9:0.465214 10:0.341737 11:0.360734 12:0.164319 13:0.180166 
-0.3459785259692559 -0.0 0.0 0.0 0.0 1:0.106493 2:0.117564 3:0.124429 4:0.123426 5:3.6301 6:3.37981 7:38.8364 8:0.457281 9:0.467391 10:0.345569 11:0.367445 12:0.162033 13:0.169057 
-0.008115474429861535 -0.0 1.0 0.017156101795755472 0.08122610641477489 1:0.114828 2:0.127447 3:0.134879 4:0.136989 5:4.92669 6:4.44856 7:28.6108 8:0.4549 9:0.466371 10:0.337879 11:0.35299 12:0.168611 13:0.176097 
-0.0 -0.21307546103759165 1.0 0.02687787510726373 0.09764151617292027 1:0.126092 2:0.132381 3:0.139622 4:0.14267 5:3.8048 6:3.60417 7:36.2317 8:0.436091 9:0.453634 10:0.335741 11:0.353144 12:0.154825 13:0.164666 
-0.0 -0.15725148059429547 1.0 0.14711971717195207 0.11821432186094201 1:0.111648 2:0.109066 3:0.111773 4:0.127721 5:5.16518 6:4.77219 7:45.2843 8:0.461397 9:0.484951 10:0.337812 11:0.368944 12:0.16769 13:0.180679 
-0.0 -0.0 1.0 0.0 0.0 1:0.104588 2:0.119853 3:0.125976 4:0.121359 5:3.7336 6:3.50764 7:26.1731 8:0.463772 9:0.474216 10:0.34455 11:0.364543 12:0.167431 13:0.175774 
-1.0 -0.0 1.0 0.0 0.0 1:0.0974598 2:0.122067 3:0.131682 4:0.122345 5:3.39938 6:3.08421 7:43.0131 8:0.459565 9:0.470378 10:0.332976 11:0.341881 12:0.181722 13:0.187788 
-1.0 -1.0 1.0 1.0 1.0 1:0.162751 2:0.139958 3:0.153588 4:0.155387 5:2.34687 6:2.39856 7:6.22372 8:0.476758 9:0.46986 10:0.348788 11:0.338364 12:0.20382 13:0.18523 
-1.0 -1.0 1.0 1.0 1.0 1:0.143423 2:0.135432 3:0.13726 4:0.11979 5:2.71821 6:2.86921 7:5.92648 8:0.476528 9:0.462314 10:0.332235 11:0.314321 12:0.207124 13:0.191104 
-1.0 -1.0 1.0 1.0 1.0 1:0.146728 2:0.14758 3:0.162058 4:0.154764 5:2.53487 6:2.36276 7:6.33053 8:0.457982 9:0.441755 10:0.316648 11:0.289765 12:0.200136 13:0.192653 
-1.0 -1.0 1.0 1.0 1.0 1:0.147447 2:0.128745 3:0.141269 4:0.132526 5:2.78287 6:2.79269 7:7.09422 8:0.483977 9:0.476483 10:0.351487 11:0.33067 12:0.206649 13:0.185851 
-1.0 -1.0 1.0 1.0 1.0 1:0.142131 2:0.136377 3:0.147223 4:0.141156 5:2.25964 6:2.33551 7:6.47541 8:0.470763 9:0.446299 10:0.343367 11:0.331963 12:0.197391 13:0.172301 
-1.0 -1.0 1.0 1.0 1.0 1:0.127 2:0.124677 3:0.142994 4:0.133675 5:2.73574 6:2.77615 7:4.22376 8:0.496693 9:0.475894 10:0.33321 11:0.319626 12:0.217723 13:0.205088 
-0.0 -1.0 1.0 1.0 1.0 1:0.12405 2:0.113333 3:0.123444 4:0.117223 5:2.73496 6:2.84397 7:10.2672 8:0.505798 9:0.501906 10:0.331501 11:0.341541 12:0.22063 13:0.205116 
-0.9545957203322232 -0.0 1.0 1.0 1.0 1:0.132559 2:0.113889 3:0.12124 4:0.120926 5:2.95532 6:3.08941 7:14.7582 8:0.507728 9:0.505666 10:0.355777 11:0.359826 12:0.205496 13:0.188804 
-0.0 -0.0 1.0 0.0 1.0 1:0.127633 2:0.119346 3:0.126446 4:0.126303 5:3.21306 6:3.13654 7:15.3 8:0.523529 9:0.529263 10:0.337746 11:0.357015 12:0.237389 13:0.231511 
-0.0 -0.0 1.0 0.0 0.0 1:0.145685 2:0.120336 3:0.131228 4:0.13728 5:2.658 6:2.66407 7:13.3064 8:0.515485 9:0.521683 10:0.357626 11:0.372455 12:0.214275 13:0.199202 
-0.0 -1.0 1.0 0.0 1.0 1:0.146251 2:0.113564 3:0.117203 4:0.124063 5:3.41078 6:3.17433 7:14.4808 8:0.509226 9:0.521366 10:0.335252 11:0.346403 12:0.217562 13:0.21553 
-0.0 -0.0 1.0 1.0 0.0 1:0.141117 2:0.123586 3:0.135559 4:0.143434 5:2.55781 6:2.57252 7:11.6812 8:0.503038 9:0.49819 10:0.335367 11:0.345177 12:0.210133 13:0.201441 
-0.0 -0.0 1.0 1.0 1.0 1:0.130054 2:0.111887 3:0.122845 4:0.123013 5:3.17519 6:3.23824 7:11.928 8:0.517917 9:0.509677 10:0.359476 11:0.361161 12:0.209319 13:0.190528 
-0.0 -0.0 1.0 1.0 1.0 1:0.145892 2:0.109062 3:0.116169 4:0.12858 5:3.40325 6:3.39806 7:11.114 8:0.514151 9:0.516058 10:0.33801 11:0.354946 12:0.221497 13:0.212881 
-0.0 -0.0 1.0 1.0 1.0 1:0.139234 2:0.120607 3:0.133441 4:0.133549 5:2.88049 6:2.78686 7:12.0282 8:0.526923 9:0.531222 10:0.340901 11:0.353753 12:0.231571 13:0.224443 
-0.0 -0.0 1.0 1.0 0.0 1:0.148614 2:0.111979 3:0.125763 4:0.135736 5:2.52826 6:2.6907 7:11.6001 8:0.525961 9:0.524834 10:0.369361 11:0.377751 12:0.203717 13:0.194853 
-0.0 -0.0 1.0 1.0 0.0 1:0.145018 2:0.119861 3:0.137863 4:0.141207 5:2.58189 6:2.70041 7:11.7194 8:0.535047 9:0.530501 10:0.365113 11:0.377543 12:0.216653 13:0.203823 
-0.0 -0.0 1.0 0.0 1.0 1:0.130069 2:0.128585 3:0.137101 4:0.130047 5:3.04809 6:2.99421 7:16.363 8:0.52321 9:0.521803 10:0.353049 11:0.357906 12:0.223642 13:0.208841 
-0.0 -0.0 1.0 0.0 0.0 1:0.14591 2:0.123847 3:0.127615 4:0.128659 5:2.44057 6:2.63294 7:12.2915 8:0.543488 9:0.543303 10:0.353227 11:0.36808 12:0.231424 13:0.216041 
-0.0 -0.0 1.0 0.0 0.0 1:0.147364 2:0.119552 3:0.12655 4:0.12093 5:2.80457 6:2.90018 7:16.3816 8:0.517789 9:0.522205 10:0.348106 11:0.36247 12:0.219956 13:0.210898 
-0.0 -0.06860334428432051 1.0 0.0 0.0 1:0.132093 2:0.109732 3:0.123269 4:0.115951 5:2.94169 6:2.96729 7:27.704 8:0.513275 9:0.511692 10:0.350595 11:0.352754 12:0.215957 13:0.199551 
-0.3905390053502533 -0.0 0.0 0.0 0.0 1:0.148922 2:0.116229 3:0.131394 4:0.134518 5:2.63909 6:2.75686 7:23.7526 8:0.534683 9:0.533541 10:0.358524 11:0.373129 12:0.221482 13:0.216501 
-0.0 -0.0 1.0 0.0 0.0 1:0.136995 2:0.117826 3:0.123616 4:0.117985 5:2.86159 6:2.87485 7:25.1841 8:0.505583 9:0.503075 10:0.334996 11:0.343789 12:0.223545 13:0.209595 
-1.0 -0.007215966585508422 0.0 0.4599134416054518 0.0 1:0.139372 2:0.122609 3:0.132858 4:0.12782 5:2.42028 6:2.70199 7:23.2773 8:0.520139 9:0.507555 10:0.360173 11:0.369052 12:0.208304 13:0.186771 
-0.0 -0.0 1.0 1.0 1.0 1:0.126666 2:0.114503 3:0.11679 4:0.114962 5:3.33255 6:3.46865 7:11.7234 8:0.51478 9:0.516458 10:0.346425 11:0.362885 12:0.216659 13:0.208385 
-0.0 -0.0 1.0 1.0 1.0 1:0.128629 2:0.128961 3:0.128118 4:0.147517 5:4.83292 6:4.28114 7:8.61211 8:0.457342 9:0.466396 10:0.339114 11:0.343927 12:0.166017 13:0.17108 
-0.0 -0.0 1.0 1.0 1.0 1:0.128234 2:0.138789 3:0.14511 4:0.132898 5:2.90076 6:2.92246 7:12.8147 8:0.460883 9:0.477612 10:0.333005 11:0.340062 12:0.169503 13:0.169851 
-1.0 -1.0 0.576867413573645 0.0 0.14333641927910498 1:0.138419 2:0.14033 3:0.148239 4:0.130051 5:2.62956 6:2.86112 7:27.4044 8:0.464845 9:0.47315 10:0.339736 11:0.35149 12:0.175459 13:0.171643 
-1.0 -1.0 1.0 0.0 0.0 1:0.139087 2:0.13662 3:0.138902 4:0.131108 5:2.83048 6:3.01165 7:17.7753 8:0.463306 9:0.48006 10:0.349352 11:0.358868 12:0.158216 13:0.161468 
-0.17654451529299622 -0.38935395859997335 1.0 0.16585580957868304 0.11977980571314448 1:0.135925 2:0.151208 3:0.155606 4:0.146723 5:3.29519 6:3.15008 7:65.9029 8:0.446507 9:0.46915 10:0.335541 11:0.346609 12:0.154673 13:0.162877 
-0.22616048893574534 -0.2047916509394583 1.0 0.19873695661473634 0.14307534870223912 1:0.138338 2:0.148169 3:0.152786 4:0.137065 5:3.37435 6:3.43591 7:53.6748 8:0.464189 9:0.477214 10:0.33417 11:0.343038 12:0.173463 13:0.172067 
-0.0 -0.0 1.0 0.0 0.0 1:0.139393 2:0.156728 3:0.155244 4:0.142647 5:3.87022 6:3.66598 7:22.2191 8:0.454695 9:0.467362 10:0.327866 11:0.331271 12:0.171923 13:0.172337 
-0.0 -0.0 1.0 1.0 1.0 1:0.132283 2:0.145986 3:0.156896 4:0.143554 5:3.58378 6:3.28295 7:12.2524 8:0.453548 9:0.472318 10:0.321966 11:0.342719 12:0.166695 13:0.175533 
-0.8351290217646022 -0.0 1.0 0.0 0.0 1:0.144685 2:0.154157 3:0.158732 4:0.151993 5:3.67741 6:3.63908 7:27.1846 8:0.457226 9:0.470727 10:0.33382 11:0.347696 12:0.169286 13:0.169912 
-1.0 -0.0 1.0 1.0 0.0 1:0.128601 2:0.14088 3:0.143041 4:0.131837 5:2.83125 6:2.88663 7:19.1392 8:0.445359 9:0.460663 10:0.325274 11:0.333785 12:0.165581 13:0.169691 
-1.0 -1.0 1.0 1.0 1.0 1:0.13138 2:0.108271 3:0.116562 4:0.135365 5:4.26077 6:3.96713 7:4.49888 8:0.432801 9:0.440695 10:0.33719 11:0.340435 12:0.155519 13:0.153627 
-1.0 -0.50132537114985 1.0 1.0 1.0 1:0.117598 2:0.12148 3:0.117569 4:0.137933 5:4.43749 6:3.89714 7:5.68806 8:0.427493 9:0.437343 10:0.3169 11:0.30521 12:0.168034 13:0.170461 
-1.0 -1.0 1.0 1.0 1.0 1:0.109694 2:0.105857 3:0.121019 4:0.123198 5:3.26646 6:3.29906 7:4.61119 8:0.444921 9:0.447022 10:0.318941 11:0.321701 12:0.170985 13:0.176566 
-1.0 -1.0 1.0 1.0 1.0 1:0.117332 2:0.111433 3:0.121067 4:0.132619 5:2.68289 6:2.60814 7:5.62324 8:0.430456 9:0.446706 10:0.319067 11:0.333752 12:0.172888 13:0.181352 
-1.0 -1.0 1.0 1.0 1.0 1:0.111428 2:0.111275 3:0.1131 4:0.127732 5:3.17065 6:3.0188 7:4.43277 8:0.451073 9:0.454419 10:0.322661 11:0.315535 12:0.174411 13:0.17726 
-1.0 -1.0 1.0 1.0 1.0 1:0.100502 2:0.116268 3:0.119121 4:0.124649 5:2.83641 6:2.80262 7:4.97044 8:0.459342 9:0.456967 10:0.333379 11:0.330025 12:0.176359 13:0.186479 
-1.0 -1.0 1.0 1.0 1.0 1:0.102328 2:0.103976 3:0.121748 4:0.119236 5:3.53573 6:3.36063 7:5.46496 8:0.445867 9:0.454598 10:0.326899 11:0.327196 12:0.173901 13:0.173718 
-1.0 -1.0 1.0 1.0 1.0 1:0.112254 2:0.108773 3:0.109959 4:0.118948 5:2.85855 6:3.01201 7:4.65749 8:0.473744 9:0.47194 10:0.344876 11:0.337138 12:0.180089 13:0.178257 
-1.0 -1.0 1.0 1.0 1.0 1:0.121844 2:0.104123 3:0.114986 4:0.116021 5:3.18332 6:3.38979 7:4.79307 8:0.433691 9:0.441299 10:0.338364 11:0.344961 12:0.158474 13:0.157523 
-0.0 -0.4517057752420844 1.0 0.42106263213446066 1.0 1:0.133969 2:0.115863 3:0.127241 4:0.14829 5:3.53663 6:3.48842 7:20.0301 8:0.471888 9:0.473931 10:0.311552 11:0.306403 12:0.209456 13:0.214736 
-0.0 -0.9858658245426938 1.0 0.0 0.0 1:0.11282 2:0.107726 3:0.117751 4:0.123134 5:2.92857 6:3.03065 7:30.3885 8:0.506058 9:0.507723 10:0.347624 11:0.352417 12:0.206458 13:0.212518 
-0.0 -0.0 1.0 1.0 1.0 1:0.120715 2:0.105545 3:0.118244 4:0.124524 5:3.08486 6:3.2748 7:11.9705 8:0.474539 9:0.477788 10:0.321214 11:0.324359 12:0.205798 13:0.211152 
-0.7220205111484636 -0.0 0.0 0.0 0.0 1:0.122491 2:0.105166 3:0.120527 4:0.14346 5:4.00677 6:3.80043 7:39.5418 8:0.498229 9:0.515922 10:0.329412 11:0.353037 12:0.209005 13:0.219779 
-0.0 -0.0 1.0 1.0 0.4635604465749647 1:0.121329 2:0.10779 3:0.127907 4:0.136146 5:2.80415 6:2.91747 7:16.1007 8:0.477065 9:0.479275 10:0.329072 11:0.336721 12:0.206089 13:0.205771 
-0.0 -0.0 1.0 1.0 1.0 1:0.129886 2:0.109155 3:0.120691 4:0.149408 5:4.06887 6:3.75972 7:15.5179 8:0.463416 9:0.484059 10:0.305799 11:0.322496 12:0.194717 13:0.206195 
-0.0 -0.14969995239797204 0.2933229638319298 0.1760749889342446 0.06498462214473157 1:0.133336 2:0.109839 3:0.113145 4:0.140597 5:4.95176 6:4.42682 7:40.3329 8:0.482424 9:0.492408 10:0.322952 11:0.327897 12:0.19808 13:0.19929 
-0.17539426830305954 -0.20062045513650725 0.494897954281845 0.2037741915590852 0.11169173058732641 1:0.120229 2:0.104644 3:0.117954 4:0.139897 5:6.62084 6:5.60608 7:26.8206 8:0.512178 9:0.525805 10:0.347295 11:0.360279 12:0.203003 13:0.210297 
-0.0 -0.0 1.0 0.526589785571814 0.0 1:0.123132 2:0.124063 3:0.141318 4:0.129683 5:2.98899 6:2.94505 7:32.0269 8:0.490195 9:0.490004 10:0.330862 11:0.332229 12:0.207872 13:0.212052 
-1.0 -1.0 1.0 0.0 0.0 1:0.150911 2:0.123053 3:0.12768 4:0.152799 5:3.09628 6:3.10962 7:24.8657 8:0.45937 9:0.470942 10:0.320329 11:0.329881 12:0.17867 13:0.195461 
-0.22236440338595384 -0.0 1.0 0.0 0.0 1:0.11631 2:0.120249 3:0.138917 4:0.117913 5:3.05041 6:3.00702 7:24.5434 8:0.489835 9:0.485652 10:0.335118 11:0.331819 12:0.218942 13:0.218497 
-0.2045062260874916 -1.0 1.0 1.0 0.6224528495703665 1:0.105346 2:0.119857 3:0.127063 4:0.113036 5:2.35302 6:2.57794 7:9.97898 8:0.475904 9:0.455501 10:0.334405 11:0.316914 12:0.200344 13:0.1879 
-1.0 -1.0 1.0 1.0 1.0 1:0.107557 2:0.121752 3:0.128788 4:0.103038 5:2.40772 6:2.75026 7:6.79831 8:0.48002 9:0.450641 10:0.326111 11:0.305952 12:0.203357 13:0.202804 
-0.0 -0.0 0.034983279409224056 0.0 0.0 1:0.141692 2:0.120444 3:0.12104 4:0.127811 5:2.68129 6:2.77079 7:31.6998 8:0.486664 9:0.470171 10:0.336795 11:0.31701 12:0.205458 13:0.205774 
-1.0 -0.4430340703905957 1.0 1.0 0.0 1:0.134664 2:0.12205 3:0.123848 4:0.118642 5:2.75228 6:2.96952 7:24.0854 8:0.476855 9:0.466198 10:0.323257 11:0.313637 12:0.205064 13:0.207565 
-1.0 -1.0 1.0 1.0 1.0 1:0.101863 2:0.107434 3:0.120461 4:0.125649 5:2.63446 6:2.74339 7:5.79349 8:0.467737 9:0.460083 10:0.340541 11:0.337165 12:0.18289 13:0.187523 
-0.0 -0.0 0.41325250566471994 0.0 0.0 1:0.151739 2:0.134414 3:0.141868 4:0.158657 5:3.90773 6:3.61222 7:37.9692 8:0.464209 9:0.494776 10:0.316245 11:0.345797 12:0.188583 13:0.200089 
-0.0 -0.3830886479484597 0.29779349862258003 0.025292276409735425 0.45543971758996854 1:0.127192 2:0.117577 3:0.117175 4:0.125141 5:2.82934 6:2.77063 7:26.0419 8:0.440239 9:0.431937 10:0.343558 11:0.332454 12:0.162629 13:0.155779 
-0.0 -0.0 1.0 1.0 0.3066739797833144 1:0.123574 2:0.115892 3:0.115303 4:0.138048 5:2.95753 6:2.60105 7:12.01 8:0.437719 9:0.434006 10:0.315388 11:0.309015 12:0.165065 13:0.170729 
-0.0 -0.0 1.0 1.0 0.0 1:0.11621 2:0.109762 3:0.113655 4:0.133708 5:2.75175 6:2.5444 7:11.7472 8:0.428042 9:0.424322 10:0.311116 11:0.304198 12:0.164974 13:0.164327 
-0.0 -0.0 0.0 0.6130646475916008 0.0 1:0.131745 2:0.11761 3:0.115254 4:0.138107 5:2.66828 6:2.39601 7:19.9121 8:0.437907 9:0.446698 10:0.337824 11:0.334763 12:0.147603 13:0.158416 
-0.0 -0.0 1.0 1.0 1.0 1:0.118722 2:0.0942967 3:0.0942819 4:0.128271 5:3.41876 6:3.12531 7:13.0652 8:0.444902 9:0.446585 10:0.331172 11:0.327154 12:0.169352 13:0.167281 
-0.7699478601144081 -1.0 1.0 1.0 1.0 1:0.119481 2:0.11617 3:0.10221 4:0.128749 5:2.91314 6:2.67911 7:9.91812 8:0.432875 9:0.435153 10:0.333708 11:0.315503 12:0.151816 13:0.158492 
-0.0 -0.0 1.0 0.0 1.0 1:0.122751 2:0.105127 3:0.102709 4:0.126462 5:3.1045 6:2.95567 7:14.175 8:0.446758 9:0.444504 10:0.335105 11:0.331745 12:0.163707 13:0.157699 
-0.45632643976947773 -0.0 1.0 0.0 1.0 1:0.114749 2:0.0996751 3:0.0803608 4:0.112295 5:3.4094 6:3.36692 7:17.4314 8:0.460181 9:0.443866 10:0.352989 11:0.339328 12:0.161319 13:0.151735 
-0.4376017291144457 -0.32137780705359015 1.0 0.6311924486258143 1.0 1:0.118724 2:0.102148 3:0.0970099 4:0.111677 5:3.34356 6:3.43789 7:20.5302 8:0.45608 9:0.442846 10:0.348737 11:0.337946 12:0.166186 13:0.147983 
-0.0 -0.0 1.0 0.0 0.0 1:0.102413 2:0.128156 3:0.129982 4:0.118781 5:3.50487 6:3.15231 7:35.2048 8:0.452533 9:0.445093 10:0.325604 11:0.318182 12:0.174957 13:0.177756 
-0.46975746164844256 -0.0 0.6663369846679417 0.0 0.0 1:0.113523 2:0.131453 3:0.12599 4:0.124578 5:3.60551 6:3.28963 7:43.3952 8:0.462858 9:0.448969 10:0.345473 11:0.334752 12:0.169761 13:0.169135 
-0.0 -0.0 1.0 0.0 0.0 1:0.0959323 2:0.122066 3:0.124378 4:0.115439 5:4.03205 6:3.75235 7:25.332 8:0.459168 9:0.44414 10:0.338291 11:0.330252 12:0.174195 13:0.168652 
-0.0 -0.0 0.3308652557452649 0.1801938950052935 0.0 1:0.101403 2:0.12554 3:0.124644 4:0.11808 5:3.33351 6:3.10933 7:33.9448 8:0.449966 9:0.440209 10:0.329512 11:0.320051 12:0.17009 13:0.171178 
-0.0 -0.0544219002126258 0.0 0.0 0.2457200760632179 1:0.0991901 2:0.120493 3:0.122954 4:0.109238 5:3.53434 6:3.43538 7:37.7374 8:0.461999 9:0.447434 10:0.335109 11:0.325757 12:0.186026 13:0.169677 
-1.0 -1.0 1.0 1.0 1.0 1:0.114267 2:0.122281 3:0.124858 4:0.139105 5:3.51865 6:3.27254 7:4.84428 8:0.467797 9:0.447393 10:0.326579 11:0.323376 12:0.17897 13:0.176928 
-0.0 -0.1944730832661576 1.0 0.0 1.0 1:0.101944 2:0.116534 3:0.116762 4:0.115828 5:3.80558 6:3.43562 7:20.4462 8:0.449439 9:0.441081 10:0.327107 11:0.317978 12:0.171959 13:0.17472 
-0.12994075318765355 -0.9623656352076363 0.024293415833948118 0.12226094009454955 0.08761928873791444 1:0.0943332 2:0.127476 3:0.135017 4:0.124308 5:3.37915 6:3.06808 7:63.9881 8:0.450837 9:0.43846 10:0.332307 11:0.327624 12:0.183718 13:0.178403 
-0.0 -0.0 1.0 1.0 1.0 1:0.107209 2:0.12239 3:0.122712 4:0.120668 5:3.57852 6:3.30783 7:14.3601 8:0.466985 9:0.453413 10:0.336916 11:0.334447 12:0.177129 13:0.179443 
-0.0 -0.0 1.0 0.0 0.0 1:0.117078 2:0.102899 3:0.123995 4:0.120062 5:2.5577 6:2.39078 7:13.0661 8:0.498965 9:0.507141 10:0.356717 11:0.367676 12:0.198742 13:0.199022 
-0.0 -0.0 0.0 1.0 0.0 1:0.106625 2:0.114718 3:0.134392 4:0.116912 5:2.41833 6:2.30398 7:15.8881 8:0.489022 9:0.500917 10:0.35407 11:0.37374 12:0.180906 13:0.188099 
-1.0 -1.0 1.0 1.0 1.0 1:0.117213 2:0.105388 3:0.131091 4:0.125046 5:2.67496 6:2.41403 7:4.81097 8:0.492254 9:0.498144 10:0.350867 11:0.366042 12:0.194654 13:0.197073 
-1.0 -1.0 0.0 1.0 1.0 1:0.126993 2:0.117776 3:0.142325 4:0.148754 5:2.18484 6:1.95853 7:4.11331 8:0.48493 9:0.494154 10:0.363747 11:0.373186 12:0.179703 13:0.194251 
-1.0 -1.0 0.0 1.0 1.0 1:0.122571 2:0.116487 3:0.139647 4:0.145072 5:2.32911 6:2.10517 7:3.83485 8:0.48936 9:0.504545 10:0.36386 11:0.371256 12:0.183828 13:0.200551 
-1.0 -1.0 0.0 1.0 1.0 1:0.117102 2:0.108583 3:0.121914 4:0.130671 5:2.50715 6:2.25421 7:3.84607 8:0.48497 9:0.491035 10:0.363052 11:0.367557 12:0.176755 13:0.186497 
-0.0 -0.0 1.0 0.35988087218616865 0.0 1:0.122406 2:0.124159 3:0.117885 4:0.118348 5:2.71917 6:2.51548 7:11.784 8:0.499482 9:0.477994 10:0.350249 11:0.303077 12:0.207813 13:0.194547 
-0.0 -1.0 1.0 1.0 1.0 1:0.121132 2:0.125535 3:0.121723 4:0.124132 5:2.92834 6:2.79848 7:10.0539 8:0.495936 9:0.473343 10:0.353998 11:0.311737 12:0.197339 13:0.179847 
-0.0 -0.3291031804858225 1.0 0.0 0.0 1:0.110899 2:0.1261 3:0.118467 4:0.114942 5:3.2617 6:3.03616 7:20.635 8:0.485571 9:0.469281 10:0.346204 11:0.306649 12:0.205379 13:0.185813 
-0.0 -0.0 1.0 1.0 1.0 1:0.114167 2:0.126083 3:0.12162 4:0.110849 5:2.91445 6:2.80955 7:12.4469 8:0.475706 9:0.451865 10:0.338226 11:0.295842 12:0.200559 13:0.176502 
-1.0 -1.0 1.0 1.0 1.0 1:0.106271 2:0.123576 3:0.119078 4:0.104735 5:2.96072 6:2.85363 7:8.90362 8:0.461932 9:0.448796 10:0.340067 11:0.3003 12:0.189821 13:0.173796 
-1.0 -1.0 1.0 1.0 1.0 1:0.116712 2:0.12535 3:0.12223 4:0.122835 5:2.85684 6:2.66691 7:9.79876 8:0.460196 9:0.449518 10:0.339279 11:0.293671 12:0.191595 13:0.178728 
-0.0 -0.0 1.0 1.0 1.0 1:0.115485 2:0.117763 3:0.105177 4:0.111233 5:3.59051 6:3.3621 7:13.2049 8:0.469002 9:0.457833 10:0.336997 11:0.303875 12:0.191316 13:0.178249 
-0.0 -0.0 1.0 1.0 1.0 1:0.117957 2:0.111072 3:0.100843 4:0.102913 5:2.80225 6:2.83902 7:15.4205 8:0.463525 9:0.440335 10:0.335845 11:0.29723 12:0.194151 13:0.161909 
-0.4945535895918666 -0.0 1.0 1.0 1.0 1:0.119063 2:0.113632 3:0.100539 4:0.104812 5:3.04907 6:3.02286 7:15.0521 8:0.469892 9:0.449293 10:0.337198 11:0.292133 12:0.188973 13:0.169698 
-0.0 -0.0 1.0 0.0 1.0 1:0.117299 2:0.118038 3:0.103254 4:0.11039 5:2.97708 6:2.87894 7:13.276 8:0.46743 9:0.446718 10:0.340402 11:0.300126 12:0.183173 13:0.163499 
-0.0 -0.0 1.0 0.0 0.6720214628769579 1:0.11929 2:0.121932 3:0.105151 4:0.0997356 5:2.99503 6:2.95573 7:17.425 8:0.470352 9:0.448257 10:0.335157 11:0.293331 12:0.190203 13:0.167504 
-0.0 -0.0 0.0 1.0 0.0 1:0.116901 2:0.117811 3:0.105872 4:0.107387 5:2.69435 6:2.70592 7:15.5492 8:0.466491 9:0.449734 10:0.342368 11:0.301957 12:0.180617 13:0.166948 
-0.0 -0.0 1.0 1.0 1.0 1:0.104978 2:0.114714 3:0.0937995 4:0.0977281 5:3.02197 6:2.98663 7:12.3722 8:0.463891 9:0.441481 10:0.345581 11:0.309781 12:0.178961 13:0.157456 
-0.0 -0.0 1.0 0.0 1.0 1:0.125293 2:0.12191 3:0.111949 4:0.123857 5:3.13596 6:3.07226 7:17.5161 8:0.461125 9:0.465479 10:0.336349 11:0.338409 12:0.169164 13:0.172082 
-0.0 -0.0 1.0 1.0 1.0 1:0.122302 2:0.109621 3:0.116113 4:0.148883 5:3.21962 6:3.01291 7:12.0032 8:0.461097 9:0.468485 10:0.325415 11:0.334688 12:0.183166 13:0.190338 
-0.026864861393668837 -0.02954555723889995 0.0 0.0350396063887867 0.025011343368562214 1:0.117644 2:0.117823 3:0.113745 4:0.129509 5:3.75541 6:3.50743 7:55.5194 8:0.47614 9:0.478589 10:0.336712 11:0.334564 12:0.179343 13:0.185834 
-0.13140252855198478 -0.38126525916900733 1.0 0.15869398671931728 0.0 1:0.127375 2:0.11485 3:0.12053 4:0.135807 5:3.49791 6:3.47703 7:31.0337 8:0.481396 9:0.475783 10:0.330146 11:0.331194 12:0.184292 13:0.186531 
-0.0 -0.0 1.0 0.0 1.0 1:0.118229 2:0.115701 3:0.121956 4:0.156465 5:4.07304 6:3.65193 7:16.4379 8:0.481354 9:0.489173 10:0.336104 11:0.341712 12:0.185376 13:0.193914 
-0.0 -1.0 0.0 0.0 0.0 1:0.140601 2:0.131458 3:0.146241 4:0.14738 5:2.23759 6:2.2373 7:30.249 8:0.464148 9:0.46951 10:0.333389 11:0.337286 12:0.186247 13:0.172991 
-0.0 -0.12803018065054578 0.0 0.11933928225355464 1.0 1:0.132 2:0.145817 3:0.158925 4:0.144807 5:2.15741 6:2.09517 7:20.716 8:0.487628 9:0.482072 10:0.333043 11:0.335032 12:0.189884 13:0.188186 
-0.0 -0.1477778724668754 0.0 0.21281610098256468 0.0 1:0.133316 2:0.150288 3:0.156686 4:0.144197 5:1.94272 6:2.00116 7:25.119 8:0.466036 9:0.473549 10:0.346972 11:0.354209 12:0.167135 13:0.165568 
-0.0 -0.03779904661389642 0.0 0.0 0.03722917434168069 1:0.127161 2:0.144176 3:0.155795 4:0.135072 5:2.06634 6:2.08135 7:46.1525 8:0.484473 9:0.486263 10:0.317406 11:0.326031 12:0.191941 13:0.191177 
-0.3719909479393564 -0.25920502605401075 0.8763641824693631 0.2593001279018651 0.18680966841332236 1:0.131761 2:0.153353 3:0.163798 4:0.138215 5:1.96819 6:2.00324 7:80.7985 8:0.468215 9:0.476279 10:0.341289 11:0.35292 12:0.17159 13:0.161442 
-0.39188881551087484 -0.11053974576130404 0.3590149504316382 0.14821028146909535 0.06800577967511807 1:0.146138 2:0.146232 3:0.155121 4:0.141972 5:1.98703 6:2.15991 7:44.406 8:0.475552 9:0.47077 10:0.336611 11:0.341011 12:0.18404 13:0.173199 
-0.0 -0.513308666008408 0.3200679182513254 0.3071353695563194 0.014191383283922531 1:0.135304 2:0.146333 3:0.152252 4:0.13218 5:1.92925 6:2.02239 7:31.3719 8:0.468015 9:0.475131 10:0.353152 11:0.356753 12:0.160161 13:0.154492 
-0.11733983738517965 -0.2207359599533553 0.4742923069644539 0.22591406612063447 0.011191749852668586 1:0.13648 2:0.149116 3:0.158025 4:0.137378 5:1.98944 6:2.03095 7:33.8186 8:0.472545 9:0.482783 10:0.347083 11:0.3577 12:0.166045 13:0.15882 
-0.22918283460184985 -0.22844482220056217 0.3139912672143884 0.21421394962109425 0.15440903974693515 1:0.136291 2:0.142983 3:0.163056 4:0.143293 5:2.02846 6:1.97455 7:58.4082 8:0.488438 9:0.493011 10:0.328073 11:0.333575 12:0.21274 13:0.199075 
-0.09626728550239451 -0.0 0.0 0.0 0.0 1:0.134971 2:0.142366 3:0.160805 4:0.136186 5:1.96877 6:2.00087 7:29.099 8:0.481524 9:0.487272 10:0.328724 11:0.342774 12:0.203066 13:0.190252 
-0.0 -0.0 0.0 0.34665766986143254 0.0278225417218448 1:0.13463 2:0.149984 3:0.169219 4:0.145386 5:2.072 6:2.03016 7:26.4638 8:0.491371 9:0.490488 10:0.320617 11:0.327805 12:0.205188 13:0.198914 
-1.0 -0.4666971101312545 0.6370410604786956 0.14080574498281992 0.426779497885191 1:0.138451 2:0.163782 3:0.179789 4:0.151804 5:2.09365 6:2.03813 7:38.4117 8:0.466132 9:0.47423 10:0.350419 11:0.353486 12:0.170801 13:0.160466 
-0.06298203208750222 -0.7748598843036839 0.0 0.0 0.21272113213718127 1:0.133724 2:0.152985 3:0.17155 4:0.140463 5:1.94657 6:1.98057 7:27.9348 8:0.47135 9:0.474662 10:0.328228 11:0.340765 12:0.191928 13:0.179998 
-0.272744811017979 -1.0 0.5234061355190819 0.2573090608675458 0.1850704281550867 1:0.130662 2:0.148607 3:0.161743 4:0.140805 5:2.06711 6:2.09675 7:73.3628 8:0.471906 9:0.472829 10:0.326608 11:0.346518 12:0.18144 13:0.174337 
-0.0 -0.1784991862287163 0.0 0.0 0.0 1:0.135469 2:0.154075 3:0.16276 4:0.140187 5:1.95065 6:2.03718 7:24.1838 8:0.483642 9:0.483405 10:0.329723 11:0.335459 12:0.18238 13:0.179684 
-0.14163019833284585 -1.0 0.0 1.0 1.0 1:0.142771 2:0.154489 3:0.166259 4:0.145815 5:2.10297 6:2.09036 7:21.1136 8:0.468676 9:0.47643 10:0.324063 11:0.335271 12:0.183229 13:0.178959 
